~o
<STREAMINFO> 1 39
<VECSIZE> 39<NULLD><MFCC_E_D_A_Z><DIAGC>
~s "silst"
<NUMMIXES> 3
<MIXTURE> 1 1.949455e-01
<MEAN> 39
 -2.149664e+00 2.699384e-02 2.407418e+00 2.952392e+00 2.794184e+00 4.080821e+00 1.500783e+00 3.294867e+00 3.520234e+00 1.399826e+00 1.996984e+00 9.772289e-01 -5.631847e-02 3.710344e-02 2.153413e-01 1.271684e-01 -4.251237e-02 -6.911165e-02 7.312807e-02 6.799152e-02 7.900209e-02 1.664712e-02 -1.651902e-02 -4.576216e-02 -2.251378e-02 -5.419772e-03 1.063859e-02 -1.323181e-03 2.608634e-02 2.840976e-02 2.554943e-02 2.664212e-02 2.057670e-02 -3.512925e-03 -9.126807e-03 2.035088e-02 9.451183e-03 7.112961e-03 5.995694e-03
<VARIANCE> 39
 8.790129e+00 3.715260e+01 1.845740e+01 2.164487e+01 2.217477e+01 2.316284e+01 2.372169e+01 3.038666e+01 1.858746e+01 2.342030e+01 2.221491e+01 1.682125e+01 7.992744e-03 2.462048e-01 6.109048e-01 6.136993e-01 8.861942e-01 1.140238e+00 1.235137e+00 1.347123e+00 1.478256e+00 1.396971e+00 1.551543e+00 1.422485e+00 1.276361e+00 1.853507e-04 6.576487e-02 1.146239e-01 1.239388e-01 1.715318e-01 2.358477e-01 2.627105e-01 2.797706e-01 3.076552e-01 3.109884e-01 2.961504e-01 2.875431e-01 2.563355e-01 1.018810e-04
<GCONST> 6.659595e+01
<MIXTURE> 2 4.122958e-01
<MEAN> 39
 -3.297035e+00 -3.792416e-02 4.423956e+00 5.971493e+00 3.873490e+00 5.834607e+00 2.827852e+00 3.840822e+00 2.370967e+00 2.722980e+00 2.091346e+00 1.013622e+00 3.100653e-01 -2.805149e+00 -1.592752e+00 -1.483249e+00 4.462898e-01 6.928481e-01 1.552710e+00 1.731544e+00 2.304690e+00 1.607193e+00 1.384353e+00 1.081697e+00 4.589682e-01 -1.145379e-01 2.913416e-01 3.077676e-01 -2.763027e-01 -5.330769e-01 -4.349024e-01 -5.411885e-01 -3.063216e-01 -2.913006e-01 -8.301991e-02 -2.267465e-01 -1.784686e-01 -1.093029e-01 2.883931e-02
<VARIANCE> 39
 2.304800e+01 3.918790e+01 2.249633e+01 2.840022e+01 2.646499e+01 3.326699e+01 3.599096e+01 4.085902e+01 3.512907e+01 3.412500e+01 3.145609e+01 2.764321e+01 3.070177e-02 1.900294e+00 2.142181e+00 2.749892e+00 2.791631e+00 2.914802e+00 3.661250e+00 3.809568e+00 3.609131e+00 3.350304e+00 3.525173e+00 3.294562e+00 3.348179e+00 1.802498e-03 3.671601e-01 5.218478e-01 3.639140e-01 5.096253e-01 4.673544e-01 5.489883e-01 5.962432e-01 6.884155e-01 6.806303e-01 6.443954e-01 5.334624e-01 5.169052e-01 4.823039e-04
<GCONST> 1.010345e+02
<MIXTURE> 3 3.927557e-01
<MEAN> 39
 -2.467528e+00 -3.276367e+00 1.665383e+00 3.110538e+00 4.094842e+00 4.126609e+00 3.485044e+00 3.575418e+00 3.629814e+00 2.740501e+00 2.333503e+00 1.478212e+00 1.222525e-01 -3.261345e-01 1.115506e-01 -9.645317e-02 -3.500020e-02 -2.737571e-01 -1.502709e-01 -1.972096e-01 -1.837683e-01 -8.045195e-02 6.792212e-02 -6.670311e-03 -8.580886e-02 -4.470233e-04 4.158576e-01 3.812385e-01 5.729404e-02 -8.819778e-03 -1.495174e-01 -1.817882e-01 -2.468864e-01 -2.508544e-01 -2.625757e-01 -1.723764e-01 -1.606833e-01 -3.851030e-02 3.547803e-02
<VARIANCE> 39
 1.668689e+01 4.750480e+01 3.650837e+01 3.896416e+01 3.673007e+01 4.334829e+01 3.866199e+01 4.878490e+01 4.011926e+01 3.930542e+01 3.880076e+01 2.690480e+01 3.080104e-02 2.485923e+00 3.287841e+00 2.545214e+00 2.913536e+00 2.822105e+00 3.121021e+00 3.285879e+00 3.541010e+00 3.405059e+00 3.061806e+00 3.022505e+00 2.397301e+00 8.678481e-03 3.585736e-01 5.230380e-01 4.855515e-01 5.778913e-01 6.159386e-01 6.818906e-01 6.483632e-01 7.180599e-01 7.236698e-01 6.522377e-01 6.470133e-01 5.192484e-01 9.211842e-04
<GCONST> 1.062657e+02
~h "#i"
<BEGINHMM>
<NUMSTATES> 15
<STATE> 2
<NUMMIXES> 10
<MIXTURE> 1 1.799966e-02
<MEAN> 39
 -4.918933e+00 1.060252e+01 -4.644495e+00 -1.555353e+00 -4.937697e+00 -2.588727e+00 1.015978e+00 2.105308e+00 9.711576e+00 1.016593e+01 1.007545e+01 6.922110e+00 9.170373e-01 -3.738064e-01 -8.387618e-02 -8.577967e-02 -3.961539e-01 -5.132717e-01 2.712833e-01 1.836056e-01 4.264703e-01 2.510412e+00 3.078334e+00 1.136105e+00 6.016132e-01 2.431995e-02 3.090194e-01 -1.743743e-01 -6.593554e-02 -1.861260e-01 -1.884903e-01 -4.255345e-02 3.177053e-01 1.850720e-01 -3.612897e-01 -7.858627e-01 -9.731923e-01 -8.030214e-01 -1.111286e-02
<VARIANCE> 39
 1.556318e+01 3.209725e+01 6.812341e+00 1.609013e+01 1.480783e+01 1.216825e+01 2.207178e+01 2.422756e+01 6.010312e+01 5.069166e+01 2.754222e+01 8.570927e+01 1.344382e-03 7.352834e-01 6.548948e-01 8.969275e-01 1.390833e+00 1.293379e+00 1.262162e+00 1.836315e+00 7.915663e-01 2.138132e+00 1.477572e+00 4.156196e+00 2.222625e+00 1.378298e-04 1.070925e-01 9.786617e-02 1.310992e-01 2.424555e-01 1.611708e-01 2.275626e-01 4.162894e-01 1.634879e-01 4.820266e-01 3.373948e-01 6.571698e-01 5.160003e-01 6.405643e-05
<GCONST> 7.152542e+01
<MIXTURE> 2 6.675490e-02
<MEAN> 39
 -1.308622e+00 1.004387e+01 -6.048820e+00 -3.491978e+00 -6.068069e+00 -4.545112e+00 9.761360e-01 -4.724604e-01 1.135721e+00 4.655150e-01 1.017145e+00 5.175108e+00 8.208919e-01 -1.601565e+00 -2.192637e-01 -5.216936e-01 1.295949e-01 -2.622435e-01 -4.774287e-01 -1.418889e+00 -1.706872e+00 -9.452884e-01 2.845763e-01 1.398049e+00 2.227254e+00 5.595711e-02 9.764405e-02 -4.842570e-01 7.704371e-01 6.572444e-01 6.858864e-01 7.480238e-01 1.476563e-01 4.208851e-01 2.159376e-01 3.299596e-01 1.011222e-01 -3.062146e-01 -3.563008e-02
<VARIANCE> 39
 1.593447e+01 3.767391e+01 2.071391e+01 1.398750e+01 2.389050e+01 1.507773e+01 2.335552e+01 1.951401e+01 4.061094e+01 5.176377e+01 4.652177e+01 5.608664e+01 5.567327e-03 4.904076e-01 5.293117e-01 8.081573e-01 8.178619e-01 1.071384e+00 1.405636e+00 1.362045e+00 2.135891e+00 3.742753e+00 6.112754e+00 8.670917e+00 7.588337e+00 3.086821e-04 1.914704e-01 2.785870e-01 2.741370e-01 2.665252e-01 4.063871e-01 4.296130e-01 4.537221e-01 2.822904e-01 3.551056e-01 7.551371e-01 5.981364e-01 7.213201e-01 3.630319e-04
<GCONST> 8.560146e+01
<MIXTURE> 3 1.960959e-01
<MEAN> 39
 1.653082e-01 1.182594e+01 -3.139196e+00 -2.311594e+00 -5.252604e+00 -5.714125e+00 -3.608077e+00 -7.266835e-01 -2.487614e+00 -2.287098e+00 -2.658447e+00 -3.083742e+00 7.489567e-01 -4.914566e-03 9.548272e-01 -1.673531e-01 7.940926e-01 -9.782637e-01 2.972558e-01 -8.052163e-01 -5.231085e-01 -9.630194e-01 -2.347241e-01 -4.563487e-01 5.855128e-01 2.927200e-03 2.931873e-02 -2.740128e-01 2.558689e-01 -2.951945e-01 1.641142e-01 1.033639e-01 2.314167e-02 1.800320e-01 1.322226e-01 1.877212e-02 1.214919e-01 2.083557e-01 6.355416e-03
<VARIANCE> 39
 1.372387e+01 2.828971e+01 2.212763e+01 3.631030e+01 2.126210e+01 2.555193e+01 5.361067e+01 2.631240e+01 2.804981e+01 3.173534e+01 5.496069e+01 4.643557e+01 1.178053e-02 5.819118e-01 1.003365e+00 1.350608e+00 2.012485e+00 1.603397e+00 2.656012e+00 2.046091e+00 2.650336e+00 2.352472e+00 2.339094e+00 2.877074e+00 3.321844e+00 4.663853e-04 9.770636e-02 2.471220e-01 2.567556e-01 3.627317e-01 3.152306e-01 4.999001e-01 4.417943e-01 3.307790e-01 3.817623e-01 5.160964e-01 5.143366e-01 4.861720e-01 4.554675e-05
<GCONST> 8.508977e+01
<MIXTURE> 4 3.902078e-02
<MEAN> 39
 4.286925e+00 1.195573e+01 -3.713234e+00 -1.828674e+00 -6.577569e+00 -6.520121e+00 -4.535476e+00 3.134687e+00 -3.510535e+00 2.310734e+00 -3.859220e+00 4.439506e+00 7.416819e-01 -3.436090e-01 1.503923e+00 -5.552108e-01 -7.135097e-01 -6.275839e-01 -1.113348e+00 -5.166947e-01 -2.955711e-01 -1.700022e+00 -1.355174e+00 -2.103338e+00 -1.207234e+00 8.075642e-02 -6.743919e-01 -8.855567e-01 2.390321e-01 3.791664e-01 6.430840e-01 8.033344e-01 4.976699e-01 -2.535893e-02 5.359063e-01 4.212206e-02 5.730405e-01 -2.567311e-01 -3.540796e-02
<VARIANCE> 39
 1.113598e+01 6.647318e+01 1.039747e+01 1.725051e+01 1.034259e+01 2.700602e+01 2.167801e+01 3.958092e+01 3.134935e+01 1.546205e+01 1.956312e+01 3.849094e+01 1.523386e-02 9.159076e-01 2.479744e+00 1.699484e+00 1.542916e+00 2.206382e+00 2.414808e+00 2.403027e+00 3.046769e+00 2.560633e+00 2.084982e+00 6.973635e+00 4.911067e+00 3.745608e-03 1.300281e-01 5.062171e-01 1.786055e-01 2.236589e-01 2.912142e-01 2.383599e-01 3.704163e-01 8.183126e-01 4.663488e-01 3.530657e-01 5.768928e-01 5.993658e-01 4.675739e-04
<GCONST> 8.921738e+01
<MIXTURE> 5 1.742346e-01
<MEAN> 39
 2.261078e+00 1.120945e+01 -1.204198e+00 -1.132842e+00 -2.502575e+00 -2.552374e+00 7.441019e-01 2.795703e+00 1.416859e+00 3.520936e+00 1.531501e+00 3.508356e+00 6.470879e-01 1.988565e-01 1.007825e+00 -6.059887e-02 2.313652e-01 -5.712003e-01 -1.365657e-01 -3.444385e-01 -2.203171e-01 -2.060015e-01 2.211211e-01 -2.012048e-01 4.018436e-01 1.259833e-02 -1.476967e-01 -1.740062e-01 -1.160119e-01 -2.554093e-01 -1.816098e-01 -2.585019e-01 -2.667110e-01 -2.838093e-01 -2.573792e-01 -3.742956e-01 -2.625538e-01 -2.706248e-01 1.282036e-02
<VARIANCE> 39
 1.077226e+01 2.948079e+01 2.924466e+01 2.295821e+01 2.018075e+01 1.870291e+01 3.763420e+01 2.744062e+01 3.275850e+01 3.302380e+01 4.813589e+01 4.057640e+01 1.607441e-02 5.598007e-01 1.600095e+00 7.668583e-01 1.276399e+00 1.238474e+00 1.954302e+00 2.392828e+00 2.452134e+00 2.495965e+00 2.058554e+00 3.554083e+00 2.501742e+00 1.254121e-03 9.730940e-02 2.687975e-01 1.753073e-01 2.470832e-01 2.780273e-01 3.567852e-01 3.244262e-01 3.444435e-01 4.161907e-01 3.617877e-01 4.011492e-01 4.875541e-01 9.715062e-05
<GCONST> 8.286656e+01
<MIXTURE> 6 6.239643e-02
<MEAN> 39
 2.203387e+00 9.792678e+00 1.115116e+00 -2.102220e-01 -5.764420e+00 -3.607308e+00 -6.088159e+00 -3.659575e-01 -1.747929e+00 -2.400025e+00 -1.904941e-01 -1.498865e+00 6.145545e-01 7.649410e-01 4.138587e+00 -4.060655e-01 -1.851552e+00 -2.210785e+00 -1.740633e+00 -2.960261e+00 -3.456466e-01 -1.104580e+00 -1.305875e+00 5.526929e-01 -1.724156e+00 1.710076e-01 -6.040952e-01 -7.662063e-01 -2.195703e-01 -2.056518e-01 3.363759e-01 3.865126e-01 6.256884e-01 2.247328e-01 4.237813e-01 2.241315e-01 1.954965e-01 2.058450e-01 -3.062358e-02
<VARIANCE> 39
 1.224046e+01 5.644426e+01 1.688044e+01 3.059743e+01 3.059578e+01 3.221378e+01 4.186612e+01 3.974428e+01 3.473397e+01 3.058961e+01 2.578156e+01 2.499974e+01 1.842890e-02 1.377478e+00 3.476198e+00 1.735069e+00 1.911659e+00 2.074890e+00 2.821830e+00 3.053389e+00 3.159492e+00 2.315781e+00 2.287893e+00 3.891149e+00 3.341315e+00 3.022836e-03 2.062392e-01 6.962751e-01 2.539716e-01 5.378792e-01 3.570226e-01 5.397162e-01 5.352907e-01 7.215519e-01 5.065562e-01 5.799236e-01 5.255996e-01 4.130020e-01 6.286117e-04
<GCONST> 9.679176e+01
<MIXTURE> 7 7.861450e-02
<MEAN> 39
 1.171958e+00 1.200995e+01 -5.472405e-01 -4.083091e+00 -8.304155e+00 -4.202643e+00 -9.426344e+00 -1.136160e-01 -2.153901e+00 -3.821307e+00 2.966847e+00 -4.290333e+00 7.579182e-01 -8.668523e-01 1.424844e+00 -2.572136e-01 -5.835899e-01 -3.215728e-01 -1.288599e-01 -9.038775e-01 2.194590e-01 -5.000858e-02 -6.687077e-01 3.908878e-01 -1.067943e+00 6.109813e-02 -3.512289e-01 -9.473113e-01 1.764515e-01 5.141993e-01 6.205099e-01 4.869354e-01 8.094403e-01 1.163859e-01 3.564851e-01 2.727121e-01 -1.356848e-01 5.977592e-01 -3.514127e-02
<VARIANCE> 39
 9.627425e+00 4.880311e+01 1.259526e+01 1.891832e+01 2.737767e+01 2.985580e+01 3.384923e+01 2.735208e+01 1.555301e+01 3.186190e+01 2.147846e+01 3.106528e+01 1.256541e-02 8.454056e-01 2.242141e+00 1.371083e+00 2.199598e+00 1.906921e+00 2.154677e+00 2.118289e+00 3.695144e+00 2.387759e+00 2.142884e+00 3.128230e+00 2.840228e+00 5.159921e-04 1.878634e-01 3.669899e-01 1.702712e-01 2.948679e-01 4.222603e-01 4.832570e-01 4.186725e-01 4.063532e-01 3.388210e-01 3.810091e-01 3.931565e-01 3.725081e-01 3.827437e-04
<GCONST> 8.577045e+01
<MIXTURE> 8 1.021817e-01
<MEAN> 39
 2.925110e+00 8.995728e+00 -3.549193e+00 -3.051514e+00 -4.713447e+00 -3.265537e+00 2.184155e+00 4.069545e+00 5.182713e+00 5.910638e+00 3.831786e+00 4.763820e+00 6.784083e-01 -9.151088e-02 2.155439e+00 -2.460151e+00 -2.117536e+00 -2.599957e+00 -2.811194e+00 -1.168355e+00 -2.059367e+00 -1.643803e+00 -1.037258e+00 -8.189029e-01 1.163190e+00 1.632516e-01 -6.646078e-01 -8.632996e-01 7.689826e-01 7.671205e-01 9.020883e-01 9.144019e-01 -7.860214e-02 -1.044040e-01 -4.594370e-01 -4.176140e-01 -3.342141e-01 -3.318383e-01 -4.017179e-02
<VARIANCE> 39
 1.331394e+01 4.724638e+01 2.438861e+01 2.111423e+01 2.481478e+01 2.284357e+01 3.394234e+01 2.684657e+01 3.852457e+01 3.079261e+01 4.153363e+01 4.351427e+01 2.016185e-02 2.195575e+00 3.535956e+00 2.576751e+00 2.300147e+00 2.584589e+00 3.084435e+00 2.872761e+00 2.224389e+00 3.880439e+00 4.163228e+00 5.407379e+00 6.544694e+00 3.329608e-03 1.666767e-01 3.325737e-01 3.320867e-01 3.909419e-01 4.460686e-01 5.142658e-01 5.508664e-01 4.123406e-01 5.268319e-01 5.979863e-01 7.562025e-01 6.653216e-01 4.430236e-04
<GCONST> 9.914547e+01
<MIXTURE> 9 6.800574e-02
<MEAN> 39
 -4.857487e-01 3.016098e+00 -3.514774e+00 -6.357523e+00 -3.099972e+00 -1.662304e+00 3.540484e+00 3.597197e+00 5.061501e+00 1.798986e+00 3.285075e+00 1.021111e+00 6.228043e-01 -1.749595e-01 2.112684e+00 -7.856636e-01 3.144131e-01 -9.473730e-01 -1.563109e+00 -9.567937e-01 -3.755930e-01 -5.523914e-01 5.597755e-01 -3.032317e-02 1.133508e-01 2.557416e-02 4.531905e-02 -2.862431e-02 2.664151e-01 4.700131e-01 -1.015771e-01 9.303010e-02 -4.965981e-01 -2.758377e-01 -3.281821e-01 -5.598410e-02 -1.969827e-01 -5.214510e-02 5.420185e-03
<VARIANCE> 39
 1.149657e+01 7.751082e+01 3.376730e+01 3.689111e+01 3.266847e+01 7.668946e+01 7.211156e+01 6.220710e+01 8.441795e+01 1.491143e+02 1.239222e+02 1.020612e+02 3.264489e-02 1.328344e+00 4.245558e+00 2.856733e+00 5.340270e+00 3.316659e+00 7.821933e+00 8.415900e+00 7.516279e+00 1.118035e+01 1.319782e+01 1.072318e+01 1.092611e+01 6.007209e-03 2.462187e-01 8.184841e-01 6.276633e-01 1.120259e+00 6.420049e-01 1.245311e+00 1.108730e+00 1.539229e+00 1.999986e+00 2.468055e+00 2.045998e+00 2.079470e+00 5.268808e-04
<GCONST> 1.276492e+02
<MIXTURE> 10 1.946930e-01
<MEAN> 39
 -1.315133e+00 9.834234e+00 1.981535e+00 -8.623688e+00 -1.419138e+00 -7.785457e+00 -3.107913e+00 1.977028e+00 1.710928e+00 -3.967173e-01 1.722117e+00 -1.620372e-01 8.119144e-01 -5.891070e-01 2.824104e+00 -1.354363e+00 1.595597e+00 -8.726540e-02 -1.578000e+00 -8.516682e-01 -9.800049e-01 -6.869011e-01 -1.215265e+00 9.218007e-01 -1.893807e-01 -4.725765e-03 2.927882e-01 -6.874294e-01 -7.824553e-02 7.047606e-01 -7.675272e-01 7.240286e-01 2.512059e-01 -1.507551e-01 -4.065438e-01 7.643994e-03 -3.031851e-01 -1.535358e-01 2.577202e-03
<VARIANCE> 39
 9.112864e+00 2.776980e+01 2.021879e+01 2.651936e+01 1.737076e+01 3.002220e+01 4.466317e+01 2.925288e+01 3.047961e+01 3.094190e+01 2.761696e+01 3.201758e+01 7.298248e-03 6.007260e-01 1.631250e+00 1.072771e+00 1.897970e+00 2.943892e+00 3.762689e+00 2.973938e+00 2.478340e+00 3.042656e+00 5.131353e+00 3.748938e+00 3.659037e+00 2.723852e-04 9.323007e-02 2.477004e-01 2.914537e-01 5.475755e-01 2.864113e-01 4.716783e-01 4.843817e-01 5.288349e-01 5.365617e-01 4.956348e-01 5.036963e-01 6.065114e-01 2.733337e-05
<GCONST> 8.590775e+01
<STATE> 3
<NUMMIXES> 10
<MIXTURE> 1 5.209507e-02
<MEAN> 39
 -3.432615e+00 8.622385e+00 -8.811248e+00 -5.402349e+00 -8.656768e+00 -7.433065e+00 -3.159701e-01 -1.621579e+00 3.862681e+00 7.554506e+00 1.036384e+01 1.498866e+01 8.957091e-01 -4.472104e-01 -2.838687e-01 -1.973004e-01 8.301304e-02 -4.262763e-01 -5.493083e-01 -1.076650e+00 -3.922842e-01 2.238955e-01 7.121359e-01 1.639228e+00 1.594974e+00 1.871251e-02 3.951548e-01 2.636213e-01 3.060932e-01 3.115231e-01 3.624552e-01 2.698431e-01 2.841356e-01 3.057204e-01 1.325867e-02 -3.177011e-01 -5.229928e-01 -7.129698e-01 -7.654598e-03
<VARIANCE> 39
 2.089979e+01 2.988984e+01 2.014490e+01 1.202850e+01 2.917109e+01 2.210816e+01 2.310641e+01 3.770064e+01 6.145764e+01 6.194970e+01 5.914888e+01 6.499970e+01 4.900394e-03 5.029455e-01 7.318310e-01 9.227242e-01 1.142888e+00 1.582160e+00 1.092854e+00 1.653165e+00 9.396060e-01 1.086196e+00 1.932145e+00 3.023014e+00 3.274065e+00 1.433398e-04 9.087373e-02 1.108980e-01 1.606720e-01 1.869325e-01 2.982627e-01 1.999792e-01 2.647215e-01 3.221747e-01 4.568920e-01 5.304791e-01 4.088690e-01 5.435349e-01 3.451944e-05
<GCONST> 7.567005e+01
<MIXTURE> 2 7.629231e-02
<MEAN> 39
 -2.371987e+00 9.835744e+00 -5.807460e+00 -1.966539e+00 -7.938870e+00 -8.599702e+00 -5.121950e+00 -5.256342e+00 -5.695244e+00 -3.244043e+00 -7.000728e+00 2.407313e+00 8.730549e-01 -2.882379e-01 -3.688296e-01 -3.649057e-01 7.869337e-02 -3.218502e-01 -4.803531e-01 -1.035457e+00 -1.041479e+00 -5.135117e-01 -5.585191e-01 -3.300505e-01 -6.269107e-02 2.029890e-02 3.535296e-01 2.818567e-01 4.094834e-01 2.616337e-01 4.088033e-01 5.283244e-01 5.964472e-01 6.081821e-01 5.894076e-01 5.171481e-01 5.256629e-01 2.130686e-01 -6.540936e-03
<VARIANCE> 39
 1.173078e+01 2.686613e+01 1.324958e+01 1.209197e+01 1.392143e+01 1.437725e+01 2.169120e+01 2.534395e+01 1.895401e+01 1.795103e+01 1.513063e+01 2.256330e+01 6.865857e-03 3.093486e-01 3.213944e-01 5.694050e-01 7.700710e-01 8.687476e-01 7.818967e-01 8.569716e-01 8.907201e-01 9.564774e-01 1.007359e+00 9.060655e-01 1.327231e+00 1.081285e-04 4.507653e-02 6.052537e-02 5.195576e-02 8.371624e-02 9.585005e-02 1.023777e-01 1.455710e-01 1.681194e-01 1.564363e-01 1.643603e-01 2.053961e-01 1.900697e-01 1.995577e-05
<GCONST> 5.062035e+01
<MIXTURE> 3 9.199429e-02
<MEAN> 39
 -4.771943e-01 9.108376e+00 -1.930801e+00 -7.694741e-01 -5.214374e+00 -8.698737e-01 -5.209283e+00 -3.541298e+00 -4.424546e+00 -2.055815e+00 8.153112e-01 6.406952e-01 8.459712e-01 -8.972362e-02 4.976815e-01 1.931895e-01 4.594974e-01 -2.562145e-01 -4.067457e-02 2.342119e-02 -3.169460e-01 -7.982581e-01 -6.527466e-01 1.224387e-01 8.379696e-01 1.958592e-02 1.099574e-01 3.808684e-02 3.280813e-02 -1.324403e-02 2.158752e-01 -2.415276e-01 2.309642e-01 4.738768e-01 6.424866e-01 1.955049e-01 1.048754e-02 -1.835359e-02 -5.092606e-03
<VARIANCE> 39
 1.180609e+01 2.761957e+01 2.242290e+01 2.092840e+01 2.286349e+01 2.519341e+01 3.396626e+01 2.251361e+01 2.014784e+01 2.211104e+01 3.974215e+01 4.117630e+01 5.547332e-03 4.899354e-01 8.025460e-01 9.378108e-01 9.847358e-01 9.581441e-01 1.461929e+00 1.159941e+00 1.758866e+00 1.964272e+00 1.621074e+00 1.978752e+00 1.419986e+00 2.942987e-04 9.799998e-02 8.684480e-02 1.237192e-01 2.430698e-01 2.748767e-01 2.773371e-01 2.784052e-01 3.876584e-01 2.740584e-01 2.740530e-01 2.673682e-01 2.862049e-01 7.474770e-05
<GCONST> 7.128233e+01
<MIXTURE> 4 7.640465e-02
<MEAN> 39
 3.505997e+00 1.534103e+01 -2.360707e+00 -2.662053e-01 -4.087226e+00 -4.115484e+00 2.916564e+00 2.042120e+00 1.220597e+00 3.830236e+00 -8.599400e-01 6.838675e+00 7.180629e-01 -4.290482e-01 4.330102e-02 -7.555362e-01 -2.883993e-01 -8.710155e-01 -6.241493e-01 -9.599091e-01 -8.355553e-01 -7.258313e-01 -1.460730e+00 -1.400050e+00 -6.725127e-01 3.386324e-02 -3.047597e-01 -4.449269e-01 -1.973068e-01 -1.309310e-01 -9.783964e-02 -2.372838e-01 -3.708871e-01 -3.278287e-01 -4.040055e-01 -4.912994e-01 -3.908735e-01 -4.508798e-01 3.609495e-03
<VARIANCE> 39
 8.281039e+00 1.441279e+01 1.609889e+01 1.277471e+01 1.306768e+01 1.156061e+01 1.432999e+01 2.200819e+01 1.794991e+01 2.666719e+01 2.069074e+01 1.967593e+01 8.191174e-03 5.380179e-01 5.738865e-01 5.797986e-01 9.659235e-01 1.027482e+00 8.661608e-01 1.327260e+00 1.167842e+00 1.057921e+00 1.810784e+00 1.894917e+00 1.754625e+00 3.710723e-04 8.398423e-02 1.059735e-01 1.074434e-01 1.191236e-01 1.793503e-01 1.701369e-01 2.212581e-01 2.039803e-01 1.961821e-01 1.896279e-01 3.175166e-01 3.274285e-01 6.521682e-05
<GCONST> 6.159087e+01
<MIXTURE> 5 1.506276e-01
<MEAN> 39
 -5.241930e-01 1.453469e+01 -1.783130e-02 -1.973351e+00 -5.967663e+00 -5.977185e+00 -9.627899e+00 8.339197e-01 -8.883680e-01 -3.166515e+00 3.590172e+00 -4.001485e+00 8.169174e-01 -3.953254e-01 1.069083e+00 -2.440553e-01 5.354619e-01 -4.677593e-01 8.134652e-02 -6.187317e-01 7.283968e-02 -4.565707e-01 -3.596972e-01 3.440005e-01 -5.823334e-01 1.603063e-02 9.487580e-02 -4.431918e-01 1.098073e-01 -1.549481e-01 9.311123e-02 2.913997e-01 3.284418e-01 -2.304569e-02 9.352828e-03 2.769022e-01 -2.432116e-01 2.475104e-01 -2.365574e-03
<VARIANCE> 39
 9.981727e+00 2.667232e+01 2.246699e+01 2.227080e+01 2.236843e+01 2.974051e+01 2.621195e+01 3.205470e+01 3.613195e+01 3.488251e+01 3.118540e+01 1.858910e+01 5.933110e-03 5.402721e-01 1.059175e+00 1.291997e+00 1.724580e+00 1.686455e+00 1.581036e+00 1.998286e+00 2.141946e+00 2.137600e+00 2.116416e+00 1.677354e+00 1.693097e+00 3.436313e-04 5.098898e-02 1.886672e-01 2.716934e-01 2.931186e-01 2.887411e-01 2.706271e-01 2.686961e-01 4.474932e-01 4.215009e-01 3.712562e-01 3.669009e-01 3.094366e-01 7.202617e-05
<GCONST> 7.692953e+01
<MIXTURE> 6 1.027469e-01
<MEAN> 39
 1.478628e+00 1.459862e+01 -3.390200e+00 -1.767065e+00 -5.231063e+00 -6.406376e+00 -4.980181e+00 3.088216e+00 -4.959082e+00 2.717271e-01 -4.590281e+00 2.198560e+00 7.774665e-01 -1.946026e-01 6.319255e-01 5.169968e-02 1.538356e-01 -7.919679e-02 -3.669901e-01 -8.529561e-01 -4.247989e-01 -2.143570e-02 4.289880e-01 -5.232242e-01 1.692500e-02 1.743618e-02 -7.195351e-02 -1.628010e-01 -1.727095e-02 -1.308695e-01 -5.305098e-02 -4.356700e-02 1.339660e-01 -1.279716e-01 2.346464e-02 -4.704547e-02 2.757630e-01 -1.358964e-01 -9.792951e-05
<VARIANCE> 39
 6.846069e+00 1.609015e+01 1.288353e+01 1.998497e+01 1.547911e+01 1.547611e+01 3.527626e+01 3.178680e+01 3.609917e+01 3.464932e+01 1.998844e+01 2.087077e+01 5.607191e-03 3.924917e-01 5.315378e-01 6.648551e-01 9.484228e-01 9.310625e-01 1.478237e+00 1.251528e+00 1.384798e+00 1.241683e+00 1.445043e+00 1.314794e+00 1.105095e+00 2.095805e-04 6.081170e-02 7.461116e-02 1.172655e-01 1.696058e-01 2.051661e-01 2.170158e-01 2.577598e-01 2.476450e-01 2.886961e-01 3.106581e-01 2.210295e-01 3.040758e-01 1.470107e-05
<GCONST> 6.232601e+01
<MIXTURE> 7 5.944715e-02
<MEAN> 39
 1.381218e+00 1.168123e+01 -6.277720e-01 -2.097579e+00 -3.860558e+00 -2.070043e+00 2.295491e+00 3.963741e+00 6.516395e-01 3.832997e+00 -1.624986e+00 4.056673e+00 7.665094e-01 -8.302062e-01 8.894106e-02 -7.176480e-01 -4.994599e-01 -7.243363e-01 -8.841919e-01 -1.036375e+00 -9.313173e-01 -1.663737e+00 -1.474549e+00 -1.206763e+00 -2.887159e-01 6.221490e-02 -3.946442e-01 -1.000299e+00 1.022262e-01 2.599161e-01 3.318484e-01 1.269023e-01 -1.795454e-01 -7.116441e-02 1.522000e-01 -9.328464e-02 2.751743e-01 -1.985171e-01 -2.437045e-02
<VARIANCE> 39
 1.230710e+01 5.056891e+01 1.224008e+01 1.927625e+01 1.372383e+01 2.197818e+01 2.036746e+01 2.571601e+01 2.244703e+01 1.969113e+01 2.154219e+01 3.289190e+01 1.366783e-02 1.014814e+00 1.155582e+00 8.897385e-01 8.489046e-01 8.496273e-01 1.519694e+00 1.622799e+00 1.393681e+00 1.822301e+00 1.272090e+00 1.645813e+00 1.560144e+00 9.403557e-04 1.334348e-01 3.447067e-01 2.036573e-01 1.944730e-01 2.150388e-01 3.186452e-01 2.382022e-01 3.992237e-01 2.617453e-01 2.857211e-01 3.594601e-01 4.458848e-01 3.851604e-04
<GCONST> 7.604398e+01
<MIXTURE> 8 1.272400e-01
<MEAN> 39
 -9.436338e-01 1.202250e+01 -3.609315e+00 -1.551818e+00 -5.867431e+00 -5.941244e+00 -8.770378e-01 -7.825705e-01 -2.573353e+00 -1.552325e-01 -4.973635e+00 4.393543e+00 8.419309e-01 -9.716417e-01 -7.212126e-01 -8.880171e-01 -4.289900e-01 -9.546766e-01 -1.288990e+00 -1.598586e+00 -1.570306e+00 -1.442295e+00 -1.481729e+00 -1.152763e+00 -6.277988e-01 2.901861e-02 1.529918e-01 -1.111364e-01 1.196488e-01 4.034352e-02 1.191324e-01 1.032466e-01 7.533856e-02 6.851748e-02 1.600037e-01 1.730443e-01 2.320896e-01 3.534288e-02 -7.264314e-03
<VARIANCE> 39
 1.399491e+01 2.806551e+01 1.468733e+01 1.469679e+01 1.258270e+01 1.552635e+01 1.831788e+01 2.410180e+01 1.822557e+01 2.013184e+01 1.972759e+01 1.779914e+01 5.845842e-03 3.875923e-01 4.827342e-01 6.315709e-01 9.292662e-01 1.128867e+00 1.053368e+00 9.114565e-01 1.380009e+00 1.036649e+00 1.314378e+00 1.941451e+00 2.359202e+00 2.842278e-04 7.206781e-02 7.981925e-02 9.493852e-02 1.520012e-01 1.660331e-01 1.827316e-01 2.043693e-01 1.918611e-01 2.274903e-01 2.322858e-01 2.223577e-01 2.344206e-01 4.393314e-05
<GCONST> 6.081532e+01
<MIXTURE> 9 6.845767e-02
<MEAN> 39
 -2.675779e+00 1.205057e+01 -5.627598e+00 -4.960068e+00 -9.501167e+00 -1.063051e+01 -5.310745e+00 -3.352836e+00 -5.840067e+00 -4.088293e+00 -7.010079e+00 -2.783262e+00 8.477716e-01 -5.318458e-01 -1.316959e-01 -1.759607e-01 5.523016e-01 -1.652723e-01 5.640025e-02 -3.703175e-01 -8.668751e-01 -9.352611e-01 -1.092271e+00 -1.101471e+00 -3.194023e-01 1.800620e-02 3.123389e-01 -7.549082e-05 4.846816e-01 4.119498e-01 6.692655e-01 6.980325e-01 4.324668e-01 6.237113e-01 7.136087e-01 7.439653e-01 7.648313e-01 5.929446e-01 -8.509989e-03
<VARIANCE> 39
 1.193516e+01 3.802901e+01 1.592244e+01 1.963757e+01 1.697151e+01 2.187487e+01 3.979024e+01 2.505318e+01 2.687200e+01 2.479067e+01 3.524231e+01 4.707774e+01 9.525382e-03 4.112265e-01 6.302056e-01 6.180819e-01 1.709859e+00 1.091490e+00 9.755569e-01 1.494886e+00 1.703358e+00 1.246027e+00 1.885145e+00 3.090216e+00 3.918331e+00 3.168713e-04 1.102514e-01 1.650188e-01 1.710776e-01 3.170913e-01 2.200855e-01 3.308325e-01 2.944006e-01 2.677279e-01 2.270271e-01 3.036177e-01 4.172825e-01 4.830055e-01 2.267168e-04
<GCONST> 7.586721e+01
<MIXTURE> 10 1.946919e-01
<MEAN> 39
 -1.463241e+00 1.539997e+01 1.303631e+00 -3.148317e+00 -5.431728e+00 -4.184903e+00 -1.040996e+01 4.580495e-01 -6.937553e-01 -3.987523e+00 5.558368e+00 -3.370483e+00 8.210917e-01 -4.122693e-01 5.690469e-01 -1.881542e-01 3.058785e-01 -2.469833e-01 7.424302e-02 -2.389532e-01 -1.433903e-01 -2.210170e-01 -4.772745e-01 2.412520e-01 -4.955259e-01 1.664308e-02 1.020093e-01 -2.577769e-01 5.275587e-02 -8.818384e-02 4.678202e-02 2.016564e-02 1.238065e-01 2.920751e-03 1.441509e-02 1.478126e-01 -1.544243e-01 1.305027e-01 -2.350238e-03
<VARIANCE> 39
 8.301730e+00 2.400628e+01 8.633014e+00 1.521015e+01 1.890724e+01 1.514390e+01 1.842929e+01 1.977277e+01 1.682563e+01 2.349958e+01 1.183663e+01 9.922171e+00 5.225049e-03 4.358942e-01 4.209156e-01 4.102768e-01 6.752220e-01 5.838407e-01 6.646733e-01 8.081380e-01 9.851663e-01 1.082200e+00 5.619496e-01 7.577408e-01 8.432779e-01 2.411582e-04 6.873254e-02 8.295414e-02 7.602521e-02 1.301534e-01 1.173566e-01 1.135354e-01 1.256172e-01 1.622784e-01 1.036960e-01 1.410601e-01 1.148949e-01 9.643718e-02 2.993478e-05
<GCONST> 4.832954e+01
<STATE> 4
<NUMMIXES> 10
<MIXTURE> 1 1.575032e-01
<MEAN> 39
 -1.296942e+00 1.391795e+01 -7.661937e-01 -2.091390e+00 -6.669649e+00 -5.941912e+00 -6.435386e+00 -1.680619e+00 5.699743e-01 -2.523925e+00 2.687585e+00 5.419730e-02 8.626796e-01 2.311401e-02 5.941139e-01 1.578142e-01 5.076328e-01 2.353804e-01 3.044853e-01 1.109885e-01 1.293732e-01 2.294385e-01 1.250366e-01 3.705901e-01 3.174998e-01 9.340546e-03 1.111212e-01 -1.389005e-01 1.224747e-02 -8.788039e-02 1.554564e-01 5.354713e-02 1.141437e-01 8.222817e-02 4.988161e-02 1.094635e-01 -8.877268e-02 -2.647611e-02 -3.046826e-03
<VARIANCE> 39
 1.590609e+01 3.622611e+01 3.997725e+01 2.041924e+01 2.880400e+01 3.469176e+01 5.241724e+01 3.344879e+01 4.730027e+01 7.373405e+01 5.913344e+01 8.326804e+01 7.841475e-03 4.325182e-01 7.553267e-01 1.081899e+00 1.098071e+00 1.368427e+00 1.389700e+00 1.735210e+00 1.281530e+00 1.467807e+00 1.994047e+00 1.641107e+00 2.405771e+00 1.620404e-04 6.966089e-02 9.976801e-02 1.705772e-01 1.930646e-01 2.331935e-01 2.276257e-01 2.615189e-01 2.490064e-01 3.073860e-01 2.733978e-01 3.256491e-01 3.346237e-01 5.065827e-05
<GCONST> 7.650690e+01
<MIXTURE> 2 1.764849e-01
<MEAN> 39
 -1.381282e+00 1.266111e+01 -1.758684e+00 -1.344542e+00 -4.827905e+00 -4.380174e+00 -5.983006e+00 5.732388e-01 -4.734506e+00 -8.776056e-01 -5.761005e-01 9.259565e-01 8.926654e-01 6.841816e-03 8.290565e-02 3.428591e-02 3.304523e-01 7.793213e-02 -6.634643e-02 -3.566412e-02 -2.322105e-02 -5.799059e-02 -1.369766e-01 -1.738475e-01 8.357722e-02 1.252140e-02 1.152100e-01 -8.553659e-02 1.281127e-03 -6.113030e-02 3.002444e-02 -2.465921e-03 6.097947e-02 8.198595e-02 2.290647e-01 7.782564e-02 4.203514e-02 -1.086419e-01 -4.925164e-03
<VARIANCE> 39
 7.721211e+00 3.682906e+01 8.978032e+00 1.103940e+01 1.558150e+01 2.266145e+01 2.891254e+01 2.016674e+01 2.240969e+01 2.273766e+01 3.295647e+01 2.933293e+01 3.317946e-03 1.960131e-01 3.576210e-01 3.886525e-01 4.516965e-01 5.419328e-01 5.857996e-01 8.004905e-01 8.368155e-01 7.870149e-01 6.554046e-01 9.796724e-01 8.980848e-01 5.720862e-05 4.274790e-02 5.775944e-02 6.112080e-02 7.940012e-02 8.976136e-02 9.455676e-02 1.479593e-01 1.414547e-01 1.212829e-01 1.327884e-01 1.540758e-01 1.368211e-01 1.159669e-05
<GCONST> 4.573254e+01
<MIXTURE> 3 5.886108e-02
<MEAN> 39
 -2.945232e+00 7.162996e+00 -1.099833e+00 -1.569161e+00 -1.958627e+00 -3.363053e+00 -5.963976e-01 -9.875703e-01 1.537873e+00 3.333491e+00 6.681273e+00 8.285760e+00 9.637827e-01 1.721333e-01 1.910327e-01 2.412253e-01 1.571926e-01 2.661591e-01 1.065330e-01 1.084434e-01 1.895698e-01 5.887153e-02 1.261134e-01 1.312897e-01 -1.968696e-02 -1.052692e-03 -2.600439e-03 -1.450631e-02 -9.812782e-03 -2.217432e-02 -3.333894e-02 -3.151009e-02 -2.306611e-02 -8.706415e-03 -1.485078e-02 -1.259254e-02 -4.731041e-03 -4.801366e-02 -7.051042e-04
<VARIANCE> 39
 8.670857e+00 2.159297e+01 4.981576e+00 8.308215e+00 6.540739e+00 1.252672e+01 3.003598e+00 4.056806e+00 1.393549e+01 1.974267e+01 1.927727e+01 3.035680e+01 8.178990e-04 8.035264e-02 1.217178e-01 1.830490e-01 1.964108e-01 2.485839e-01 1.823910e-01 1.881761e-01 1.900731e-01 3.719805e-01 1.691999e-01 2.302127e-01 1.915310e-01 3.754082e-05 7.997736e-03 1.963150e-02 2.534139e-02 2.178425e-02 2.845109e-02 3.168347e-02 2.912425e-02 2.907264e-02 3.993119e-02 2.864354e-02 2.912713e-02 3.103269e-02 3.730629e-06
<GCONST> 5.336744e+00
<MIXTURE> 4 4.719651e-02
<MEAN> 39
 -1.073240e+00 1.387565e+01 -9.058834e-01 -1.474538e+00 -5.154022e+00 -6.669815e+00 -9.748857e+00 3.868055e+00 -6.674044e+00 1.400773e+00 -3.293451e+00 -8.741453e-02 8.505449e-01 2.563860e-02 -6.611128e-02 -2.140536e-01 -1.372308e-01 -2.559798e-02 -1.895092e-01 1.172817e-01 -3.714855e-01 7.015502e-02 -2.609833e-01 9.988237e-02 -4.471912e-02 7.018311e-04 1.057231e-02 -1.330762e-02 1.885881e-02 -2.891563e-02 3.511608e-02 5.888270e-02 2.147999e-02 -1.654991e-02 4.102582e-02 -3.118382e-03 5.297421e-02 -4.805826e-03 -7.270356e-04
<VARIANCE> 39
 2.634896e+00 7.680050e+00 1.097408e+01 1.144616e+01 5.268941e+00 9.977475e+00 1.354369e+01 1.704894e+01 1.813394e+01 1.741537e+01 3.066910e+01 1.596624e+01 1.270686e-03 4.904887e-02 7.320980e-02 1.165122e-01 1.279778e-01 2.287725e-01 2.140073e-01 2.619829e-01 2.066837e-01 1.507174e-01 1.962863e-01 1.869201e-01 2.288696e-01 3.754082e-05 8.017070e-03 1.423687e-02 2.067492e-02 1.494431e-02 2.525993e-02 4.661427e-02 4.119295e-02 3.773453e-02 3.761870e-02 3.701041e-02 3.916492e-02 4.429227e-02 3.730629e-06
<GCONST> 5.768509e+00
<MIXTURE> 5 7.725303e-02
<MEAN> 39
 -1.526281e-01 8.956397e+00 -2.329434e+00 5.608266e-01 -3.728240e+00 -2.780162e+00 -6.754183e+00 2.833600e+00 -6.617620e+00 1.862017e+00 -4.024067e+00 2.736345e+00 9.341072e-01 8.664991e-02 3.546794e-02 3.047653e-02 1.320115e-02 6.074432e-02 3.135834e-02 2.961866e-03 3.863080e-02 7.822222e-02 2.342987e-02 2.406177e-02 -1.542703e-01 2.808803e-04 -3.362575e-03 -2.172593e-02 4.842561e-06 -3.563595e-02 -8.694111e-03 -3.179662e-02 3.681772e-02 9.908055e-03 5.938925e-02 -2.752913e-02 9.561479e-03 -1.200344e-02 -1.071083e-03
<VARIANCE> 39
 8.799318e+00 1.797489e+01 4.906371e+00 1.231278e+01 4.437303e+00 5.909067e+00 1.285894e+01 1.171421e+01 1.913406e+01 1.165808e+01 1.633814e+01 2.352604e+01 1.845511e-03 7.802423e-02 8.757169e-02 1.425737e-01 2.086936e-01 1.916491e-01 2.369209e-01 3.114203e-01 2.827825e-01 2.780065e-01 3.703464e-01 1.820578e-01 3.097178e-01 3.754082e-05 7.056732e-03 1.776685e-02 2.471887e-02 3.866218e-02 4.224809e-02 2.853552e-02 5.494491e-02 4.268819e-02 4.273806e-02 7.976023e-02 4.373128e-02 6.473424e-02 3.730629e-06
<GCONST> 1.206501e+01
<MIXTURE> 6 7.023057e-02
<MEAN> 39
 -1.005072e+00 1.934276e+01 1.811277e-01 -1.720253e+00 -4.529401e+00 -7.707675e+00 -9.980012e+00 8.002957e-01 -5.817444e+00 2.111233e+00 1.626352e+00 -4.242134e-01 8.312351e-01 -5.891068e-02 1.652696e-01 -1.391011e-01 -1.221715e-01 1.973181e-01 1.044142e-02 5.349426e-02 -2.390609e-01 4.086364e-02 -1.493272e-01 -8.221529e-02 1.012256e-01 3.423820e-03 6.664629e-03 -4.854672e-02 -2.701904e-02 -5.213755e-02 -4.220264e-03 -9.743381e-02 1.680590e-02 2.526739e-02 5.411806e-02 -3.100111e-02 5.238402e-02 -6.817424e-02 -1.167450e-03
<VARIANCE> 39
 2.721711e+00 1.481005e+01 9.925330e+00 3.174592e+00 1.419103e+01 1.514370e+01 1.010749e+01 3.329467e+01 1.135487e+01 2.873679e+01 2.621819e+01 1.613487e+01 3.577828e-03 5.017809e-02 1.383973e-01 1.326723e-01 1.516966e-01 3.237028e-01 2.895975e-01 2.455494e-01 3.187763e-01 4.772977e-01 3.071270e-01 3.636400e-01 5.523363e-01 3.754082e-05 9.433505e-03 2.197921e-02 2.727530e-02 4.017728e-02 6.965379e-02 5.326734e-02 5.938213e-02 7.008334e-02 7.940560e-02 5.882452e-02 5.905986e-02 1.129508e-01 3.730629e-06
<GCONST> 1.945835e+01
<MIXTURE> 7 7.011000e-02
<MEAN> 39
 -8.158999e-01 1.364917e+01 -5.564322e+00 -3.161172e+00 -3.848489e+00 -9.078434e+00 2.789430e-02 -1.385318e+00 -3.071728e+00 -3.526365e+00 -4.999218e+00 1.530339e+00 7.867119e-01 9.539487e-03 2.227494e-02 -2.305578e-02 3.887744e-03 8.109611e-03 6.184590e-03 1.216301e-01 -5.766010e-02 6.414543e-02 -1.292680e-02 -2.358174e-02 -3.087900e-03 6.328336e-04 -1.069838e-02 -2.414917e-02 -2.983397e-02 -3.473380e-02 -2.707470e-02 -4.248969e-02 -5.130431e-02 -4.801302e-02 -1.555560e-02 2.250675e-02 -3.487144e-02 -4.408505e-02 -9.038389e-04
<VARIANCE> 39
 2.434190e+00 3.607555e+00 6.498999e+00 1.110580e+01 2.155764e+01 2.704191e+01 7.985738e+00 1.205030e+01 2.288104e+01 1.248138e+01 1.000753e+01 9.467732e+00 1.096956e-02 3.615274e-02 7.568473e-02 8.791488e-02 2.018570e-01 1.442982e-01 2.281421e-01 1.788214e-01 2.435975e-01 1.654579e-01 1.654938e-01 1.965883e-01 2.334486e-01 3.754082e-05 8.008257e-03 8.870422e-03 1.522508e-02 2.701185e-02 1.995544e-02 4.086770e-02 2.761505e-02 3.110881e-02 2.156134e-02 2.562067e-02 2.419950e-02 3.143181e-02 3.730629e-06
<GCONST> 2.706132e+00
<MIXTURE> 8 3.704649e-02
<MEAN> 39
 -4.473256e+00 9.013999e+00 -1.600603e+00 -1.208330e+00 -3.348479e+00 -3.517993e+00 -1.190505e+00 -7.109610e-01 -3.635412e-01 3.316361e+00 5.566033e+00 1.146669e+01 9.525058e-01 -2.119991e-01 -4.420536e-01 -4.292446e-01 -3.545173e-01 -4.021415e-01 -5.838481e-01 -4.072249e-01 -4.269906e-01 -1.765419e-01 -1.777128e-01 1.230272e-01 -6.591663e-02 1.240365e-03 1.685189e-03 -5.131369e-03 -2.438317e-02 -6.657054e-02 -4.365146e-02 -3.714743e-02 1.582206e-02 -1.516279e-02 -6.505273e-03 4.126327e-03 -9.223179e-02 -1.288117e-01 -1.123285e-03
<VARIANCE> 39
 1.186587e+01 1.260792e+01 5.574939e+00 1.023410e+01 7.481439e+00 1.230820e+01 6.570843e+00 4.400765e+00 1.597173e+01 3.216567e+01 4.347630e+01 3.843997e+01 1.820331e-03 8.106323e-02 1.112707e-01 1.253197e-01 2.177274e-01 2.972463e-01 1.413643e-01 2.760692e-01 2.073575e-01 1.941248e-01 2.001079e-01 3.217043e-01 3.971285e-01 3.754082e-05 2.327499e-02 2.583262e-02 3.011605e-02 3.198434e-02 4.810331e-02 2.954376e-02 5.190281e-02 4.288680e-02 3.682020e-02 4.684990e-02 5.842184e-02 6.749472e-02 3.730629e-06
<GCONST> 1.471226e+01
<MIXTURE> 9 1.041557e-01
<MEAN> 39
 -1.734567e+00 1.162299e+01 -6.081443e+00 -3.166003e+00 -9.235847e+00 -8.727175e+00 -4.699859e+00 -4.721332e+00 -6.662772e+00 -4.016250e+00 -6.888778e+00 1.637865e+00 8.585118e-01 2.611101e-01 2.551503e-01 2.875323e-01 5.396264e-01 2.976220e-01 4.240680e-01 2.483271e-01 2.842948e-01 2.759491e-01 1.366679e-01 3.952076e-01 2.736510e-01 9.240520e-03 1.312703e-01 1.796091e-01 2.329779e-01 1.651015e-01 3.510838e-01 2.773038e-01 3.644383e-01 4.465248e-01 4.275378e-01 3.778765e-01 3.521248e-01 1.490605e-01 -2.862063e-03
<VARIANCE> 39
 1.061093e+01 2.864545e+01 1.121851e+01 1.816586e+01 1.276011e+01 1.519994e+01 1.568386e+01 2.235769e+01 2.291105e+01 2.039528e+01 2.752281e+01 3.411212e+01 9.583510e-03 2.141188e-01 3.369255e-01 4.474326e-01 6.030514e-01 8.164703e-01 8.006044e-01 1.021358e+00 8.536624e-01 8.102546e-01 1.011807e+00 1.067695e+00 9.070814e-01 6.809616e-05 5.423579e-02 5.920847e-02 8.198881e-02 1.203356e-01 1.279594e-01 1.356529e-01 1.703732e-01 1.735414e-01 1.651810e-01 1.997186e-01 2.857381e-01 2.201166e-01 1.574421e-05
<GCONST> 5.268444e+01
<MIXTURE> 10 2.011544e-01
<MEAN> 39
 -3.203167e+00 1.670537e+01 5.002353e-01 -2.478892e+00 -4.230846e+00 -4.652047e+00 -8.457076e+00 -3.665383e-01 -3.387713e-02 -5.435449e+00 5.773777e+00 -3.489401e+00 8.819493e-01 1.695165e-02 3.233249e-02 -2.265298e-02 -7.326847e-02 4.450496e-02 -3.952722e-02 3.286457e-02 -6.668352e-03 2.411892e-02 5.052437e-02 -2.472192e-02 4.030497e-03 7.118802e-04 2.638716e-02 -4.289782e-02 2.059117e-02 -2.695167e-02 1.015240e-02 -3.604541e-03 1.285987e-02 4.017803e-03 6.464295e-03 3.830346e-02 -1.711610e-02 4.517951e-02 -1.224380e-03
<VARIANCE> 39
 9.131720e+00 3.355826e+01 8.709146e+00 7.256783e+00 8.351006e+00 1.310216e+01 1.305601e+01 1.380408e+01 1.109286e+01 1.555441e+01 1.014413e+01 7.622550e+00 5.550321e-03 5.531986e-02 8.007640e-02 1.010180e-01 1.293384e-01 1.452651e-01 1.481077e-01 1.523518e-01 1.739462e-01 2.126916e-01 1.919104e-01 1.357409e-01 1.490981e-01 3.754082e-05 9.246240e-03 1.768781e-02 1.536518e-02 1.928210e-02 2.695004e-02 2.150313e-02 2.647786e-02 3.039790e-02 3.625626e-02 3.301454e-02 2.145910e-02 2.434494e-02 3.730629e-06
<GCONST> 3.022324e+00
<STATE> 5
<NUMMIXES> 10
<MIXTURE> 1 6.451140e-02
<MEAN> 39
 -2.415715e+00 1.207595e+01 -5.853314e+00 -2.965722e+00 -6.528273e+00 -6.322057e+00 -3.144185e+00 -1.755723e+00 3.194261e+00 3.229172e+00 8.407166e+00 8.968936e+00 8.986735e-01 1.436890e-01 1.780094e-01 1.890833e-01 2.132494e-01 2.988361e-01 3.922328e-01 2.327377e-01 7.393859e-02 1.009397e-01 1.339349e-01 -1.343071e-01 -2.248268e-01 6.180253e-03 9.958494e-02 -4.496803e-02 1.073006e-01 -7.043316e-02 1.136248e-01 5.223403e-02 7.311819e-02 5.527402e-03 6.487106e-03 4.575595e-02 -1.630438e-01 -4.930222e-02 -2.947017e-03
<VARIANCE> 39
 1.949686e+01 4.903418e+01 3.980472e+01 1.929053e+01 2.293128e+01 2.974024e+01 3.407098e+01 2.509973e+01 5.398851e+01 8.881458e+01 5.158270e+01 1.392745e+02 7.859771e-03 4.764129e-01 8.213644e-01 1.069733e+00 1.159257e+00 1.499659e+00 1.380612e+00 1.126006e+00 8.692582e-01 9.254268e-01 1.459243e+00 1.045107e+00 1.506550e+00 9.650386e-05 4.438819e-02 9.395325e-02 1.347622e-01 1.542151e-01 2.203049e-01 1.421688e-01 1.236211e-01 1.547673e-01 1.502088e-01 2.243156e-01 1.664267e-01 1.832184e-01 2.835508e-05
<GCONST> 6.833588e+01
<MIXTURE> 2 8.154500e-02
<MEAN> 39
 -1.400483e+00 1.197710e+01 -6.626206e+00 -3.158500e+00 -1.002657e+01 -9.626736e+00 -6.127480e+00 -3.927431e+00 -6.001083e+00 -5.193251e+00 -7.881498e+00 -7.777715e-01 8.741345e-01 5.105697e-02 6.624175e-02 8.639640e-05 -2.212238e-03 5.679918e-02 6.543216e-02 1.172852e-01 1.162517e-01 2.043176e-01 -4.284999e-02 3.337874e-02 -6.124125e-02 -3.122879e-04 1.613418e-01 2.248833e-01 3.646882e-01 3.450077e-01 4.431384e-01 4.476743e-01 4.813198e-01 4.369517e-01 4.786461e-01 3.617913e-01 3.454904e-01 2.551312e-01 -1.133829e-03
<VARIANCE> 39
 1.484759e+01 2.077394e+01 1.455671e+01 1.487932e+01 1.225089e+01 2.184227e+01 2.120103e+01 2.265070e+01 1.827896e+01 2.989993e+01 1.948904e+01 3.714355e+01 5.994308e-03 1.007995e-01 1.672188e-01 2.823654e-01 3.337885e-01 3.689332e-01 5.338232e-01 4.933467e-01 4.939000e-01 5.036365e-01 5.583724e-01 4.743211e-01 4.867935e-01 3.754082e-05 1.496292e-02 3.978099e-02 4.168238e-02 6.487587e-02 6.218489e-02 6.929051e-02 7.832137e-02 7.622348e-02 1.023904e-01 8.959629e-02 9.846101e-02 1.159416e-01 3.730629e-06
<GCONST> 3.434489e+01
<MIXTURE> 3 9.007355e-02
<MEAN> 39
 1.366229e+00 1.468546e+01 -3.692295e+00 8.061119e-01 -4.880538e+00 -5.067720e+00 -2.107599e+00 -1.632096e+00 -1.619192e+00 1.690890e-03 -1.976657e+00 4.399142e+00 8.859184e-01 2.431035e-01 3.472980e-01 2.270282e-01 6.626159e-01 3.493243e-01 2.441290e-01 4.054328e-01 2.668606e-01 5.928446e-01 5.618356e-01 4.605074e-01 5.564231e-01 6.056964e-03 -1.593428e-01 -2.538735e-01 -2.083839e-01 -3.508596e-01 -2.424283e-01 -2.851391e-01 -2.021949e-01 -2.066476e-01 -2.673980e-01 -1.709955e-01 -1.487433e-01 -3.060707e-01 -2.019267e-03
<VARIANCE> 39
 1.438555e+01 2.675581e+01 1.904535e+01 1.286253e+01 1.983043e+01 2.755151e+01 1.892078e+01 2.681711e+01 1.848785e+01 2.506401e+01 5.384794e+01 4.781751e+01 4.469849e-03 1.836519e-01 5.129523e-01 5.374498e-01 5.680816e-01 9.474125e-01 1.375927e+00 1.529872e+00 1.397178e+00 1.142086e+00 1.053058e+00 1.324556e+00 1.710512e+00 6.644799e-05 3.114720e-02 7.367884e-02 1.018658e-01 1.331561e-01 1.217211e-01 2.294686e-01 2.458085e-01 1.904062e-01 1.875258e-01 2.496173e-01 2.544447e-01 2.631135e-01 9.500105e-06
<GCONST> 5.875807e+01
<MIXTURE> 4 1.565690e-01
<MEAN> 39
 1.826859e-02 1.289353e+01 -4.921803e+00 3.337201e-01 -6.102587e+00 -7.197062e+00 -3.237874e+00 -3.651519e+00 -2.733477e+00 -2.453823e+00 -5.156768e+00 3.271141e+00 8.931628e-01 3.863006e-03 3.206222e-02 -5.540793e-02 1.018355e-01 9.667743e-03 -2.550710e-02 -7.671942e-03 -3.750199e-02 2.085441e-01 5.293682e-02 -6.952734e-02 -6.477550e-02 -2.051706e-04 -3.700617e-02 -2.461836e-02 5.039190e-03 -7.335739e-02 2.937650e-02 -4.574308e-02 3.667850e-02 3.782628e-02 1.666769e-02 1.042569e-02 5.647698e-02 -4.437682e-02 -1.375471e-03
<VARIANCE> 39
 1.523309e+01 2.261801e+01 1.373703e+01 1.418206e+01 1.726911e+01 2.085831e+01 1.832014e+01 2.904591e+01 1.922767e+01 2.280996e+01 3.392085e+01 4.220095e+01 4.933364e-03 7.498519e-02 1.387648e-01 1.939743e-01 2.995839e-01 2.882056e-01 3.945636e-01 3.785514e-01 4.172841e-01 4.206375e-01 3.661501e-01 4.189621e-01 4.439245e-01 3.754082e-05 1.575602e-02 2.318680e-02 4.429565e-02 3.639187e-02 6.047155e-02 5.831403e-02 8.037883e-02 8.003887e-02 8.866622e-02 7.469117e-02 8.374232e-02 8.839758e-02 3.730629e-06
<GCONST> 3.035935e+01
<MIXTURE> 5 9.686249e-02
<MEAN> 39
 -1.556778e-01 1.379491e+01 -3.471527e+00 4.837549e-01 -5.769610e+00 -4.886899e+00 -1.872607e+00 -2.416216e-01 -1.948901e+00 -1.311710e+00 -4.637768e+00 1.465732e+00 8.717729e-01 3.170644e-01 4.291216e-01 4.439045e-01 5.305066e-01 6.593763e-01 5.545092e-01 7.252617e-01 5.350552e-01 6.131709e-01 6.135818e-01 4.626836e-01 3.393605e-01 -4.457140e-04 -7.987454e-02 -1.937323e-01 -1.952494e-01 -2.464834e-01 -2.050573e-01 -2.723140e-01 -1.802351e-01 -2.809525e-01 -2.009486e-01 -1.767533e-01 -1.832189e-01 -1.736088e-01 -1.014243e-03
<VARIANCE> 39
 1.599516e+01 2.330059e+01 9.759584e+00 1.419776e+01 1.053569e+01 2.124504e+01 1.539249e+01 2.853489e+01 2.052444e+01 1.987215e+01 1.584787e+01 2.614363e+01 8.766109e-03 8.573777e-02 1.860590e-01 2.366030e-01 3.087488e-01 4.108182e-01 4.973173e-01 5.035508e-01 5.000818e-01 4.334612e-01 5.510187e-01 4.876861e-01 4.389039e-01 3.754082e-05 1.477375e-02 3.253077e-02 5.104307e-02 5.947296e-02 8.641887e-02 8.913098e-02 9.313533e-02 7.955383e-02 9.423428e-02 9.169246e-02 9.896332e-02 6.668478e-02 3.730629e-06
<GCONST> 3.296039e+01
<MIXTURE> 6 5.206021e-02
<MEAN> 39
 -1.183287e+00 1.138264e+01 -5.250927e+00 -2.101149e+00 -9.123173e+00 -8.520100e+00 -6.102157e+00 -3.551430e+00 -4.128404e+00 -5.030451e+00 -3.809679e+00 7.677026e-01 8.786379e-01 -3.165881e-01 -3.991134e-01 -7.142179e-01 -7.804494e-01 -8.076717e-01 -9.076387e-01 -7.933744e-01 -6.552659e-01 -5.942250e-01 -7.583826e-01 -6.709052e-01 -6.136079e-01 1.905169e-03 9.354876e-02 2.259495e-01 2.009452e-01 2.072512e-01 3.178474e-01 3.247856e-01 3.042961e-01 3.025770e-01 3.084282e-01 2.197909e-01 1.677700e-01 1.728031e-01 -1.604771e-03
<VARIANCE> 39
 1.821495e+01 2.170805e+01 1.842257e+01 1.250993e+01 2.199847e+01 3.232700e+01 3.106094e+01 2.503666e+01 1.586248e+01 2.776703e+01 4.842612e+01 5.996716e+01 6.324287e-03 1.049623e-01 2.147091e-01 2.517027e-01 6.031351e-01 4.904265e-01 4.445680e-01 5.086625e-01 5.520922e-01 6.103974e-01 5.494725e-01 8.926980e-01 6.743488e-01 3.754082e-05 1.288960e-02 3.308458e-02 4.258661e-02 7.052302e-02 8.010321e-02 9.734435e-02 1.278047e-01 1.230292e-01 9.627336e-02 1.095173e-01 1.075296e-01 5.306179e-02 4.174587e-06
<GCONST> 4.037817e+01
<MIXTURE> 7 6.756171e-02
<MEAN> 39
 -4.605899e-01 1.329566e+01 -5.413249e+00 -8.690027e-01 -7.140758e+00 -9.046720e+00 -3.709136e+00 -2.878959e+00 -3.615485e+00 -3.246722e+00 -7.008484e+00 1.155893e+00 8.811774e-01 -1.831435e-01 -5.091384e-01 -7.256855e-01 -6.067049e-01 -6.969357e-01 -7.428876e-01 -6.765381e-01 -8.074165e-01 -6.712600e-01 -5.900688e-01 -4.629065e-01 -5.679325e-01 4.265952e-04 6.119711e-04 1.217166e-02 3.797602e-02 -3.366285e-02 1.852136e-02 7.651941e-02 6.969324e-02 5.762248e-02 5.583024e-02 -9.614708e-03 6.114648e-02 1.842339e-02 -1.378894e-03
<VARIANCE> 39
 1.159611e+01 2.167847e+01 8.401406e+00 1.287166e+01 1.394080e+01 1.951892e+01 1.441403e+01 2.572862e+01 1.730213e+01 2.663622e+01 1.083523e+01 2.937568e+01 5.855859e-03 7.406209e-02 1.556465e-01 2.695103e-01 3.015710e-01 2.934283e-01 4.483969e-01 6.021774e-01 4.411620e-01 4.066984e-01 3.755635e-01 5.053837e-01 4.920821e-01 3.754082e-05 8.140829e-03 2.361141e-02 3.147542e-02 4.251467e-02 3.715935e-02 8.220233e-02 6.871395e-02 8.671564e-02 7.282054e-02 7.797772e-02 6.477951e-02 8.477497e-02 3.730629e-06
<GCONST> 2.741618e+01
<MIXTURE> 8 9.884404e-02
<MEAN> 39
 -1.147442e-02 1.408825e+01 -3.121301e+00 7.630002e-01 -5.265364e+00 -5.250844e+00 -1.430635e+00 -1.433837e-01 -1.581240e+00 -6.623520e-01 -4.183666e+00 2.759416e+00 8.751532e-01 -1.530061e-01 -3.270338e-01 -4.704370e-01 -4.335071e-01 -4.337618e-01 -5.572828e-01 -3.351680e-01 -5.048777e-01 -3.992038e-01 -3.852746e-01 -4.597217e-01 -4.445424e-01 1.471860e-03 -1.335373e-01 -2.144688e-01 -2.699351e-01 -3.446122e-01 -3.070788e-01 -3.162937e-01 -2.969084e-01 -2.983724e-01 -2.413156e-01 -2.828229e-01 -2.220637e-01 -2.506335e-01 -1.232467e-03
<VARIANCE> 39
 1.498483e+01 2.549321e+01 1.063469e+01 1.410118e+01 1.178459e+01 2.107437e+01 1.654036e+01 2.238154e+01 2.174961e+01 2.163724e+01 2.369315e+01 3.281229e+01 6.423517e-03 9.092971e-02 1.972064e-01 2.541116e-01 3.083787e-01 3.884054e-01 3.860782e-01 4.605515e-01 4.615279e-01 5.059941e-01 6.452151e-01 4.978694e-01 4.406650e-01 3.754082e-05 1.778986e-02 4.172257e-02 4.913738e-02 5.778071e-02 6.129254e-02 9.325783e-02 1.057021e-01 9.017526e-02 8.892624e-02 7.558559e-02 8.223254e-02 8.224762e-02 4.771665e-06
<GCONST> 3.384504e+01
<MIXTURE> 9 8.304670e-02
<MEAN> 39
 -4.801669e-01 1.220513e+01 -5.927530e+00 -1.910345e+00 -8.489694e+00 -7.035389e+00 -4.051823e+00 -3.817751e+00 -3.627287e+00 -3.493698e+00 -5.429649e+00 1.148064e+00 8.834996e-01 3.883131e-01 5.937101e-01 5.779821e-01 7.951791e-01 8.730746e-01 9.924421e-01 9.066483e-01 7.917332e-01 8.137408e-01 7.671940e-01 7.069315e-01 4.456885e-01 4.510662e-04 6.789082e-02 8.181950e-02 1.477591e-01 1.170767e-01 2.378389e-01 1.100258e-01 2.366286e-01 1.714669e-01 1.166181e-01 2.202078e-01 1.320259e-01 7.047813e-02 -1.133288e-03
<VARIANCE> 39
 1.541950e+01 2.227021e+01 1.507216e+01 1.371109e+01 1.394647e+01 1.995585e+01 1.564314e+01 2.702677e+01 2.082197e+01 2.771734e+01 2.319457e+01 3.443014e+01 6.308184e-03 1.310046e-01 2.287382e-01 2.398386e-01 4.219150e-01 3.578888e-01 5.453516e-01 5.404263e-01 5.614046e-01 5.683552e-01 5.771837e-01 4.831417e-01 5.804306e-01 3.754082e-05 1.451861e-02 2.721031e-02 3.647899e-02 6.379882e-02 8.440719e-02 9.114055e-02 9.494860e-02 8.933061e-02 8.372036e-02 8.937597e-02 1.043518e-01 1.350314e-01 3.730629e-06
<GCONST> 3.610350e+01
<MIXTURE> 10 2.089209e-01
<MEAN> 39
 -1.195798e+00 1.678720e+01 7.629150e-01 -1.204596e+00 -6.905654e+00 -3.064095e+00 -1.222640e+01 8.044046e-01 -4.495376e-01 -5.722854e+00 5.421268e+00 -5.141007e+00 8.570980e-01 1.025085e-02 4.396257e-02 4.409128e-02 -2.516506e-02 1.629509e-01 -3.525211e-02 7.279909e-02 8.600632e-02 4.591980e-02 6.840588e-03 2.134432e-02 -9.907573e-02 3.319276e-04 -4.261319e-03 -6.753132e-02 2.074380e-02 -1.001585e-01 4.334448e-02 -7.809965e-02 6.007527e-02 -6.225046e-02 2.897460e-02 3.399648e-02 -2.124615e-02 7.336622e-02 -9.163315e-04
<VARIANCE> 39
 9.352678e+00 2.294725e+01 1.043756e+01 1.505189e+01 2.566820e+01 2.291771e+01 2.030910e+01 2.345404e+01 2.438204e+01 2.749696e+01 1.541481e+01 1.544348e+01 4.316546e-03 8.376662e-02 1.506625e-01 2.562435e-01 3.194761e-01 3.287674e-01 5.909432e-01 5.883018e-01 5.902557e-01 6.640403e-01 5.492417e-01 5.403506e-01 5.246807e-01 3.754082e-05 1.581649e-02 3.075052e-02 4.630361e-02 6.134443e-02 7.033850e-02 9.913112e-02 9.778586e-02 1.148156e-01 1.580632e-01 1.014847e-01 9.580377e-02 8.168411e-02 3.730629e-06
<GCONST> 3.472152e+01
<STATE> 6
<NUMMIXES> 10
<MIXTURE> 1 1.231964e-01
<MEAN> 39
 -1.518952e+00 1.031956e+00 -1.506850e+00 -1.133992e+00 -1.644885e+00 -1.974267e+00 -1.792903e+00 -1.497596e+00 -1.357373e+00 -2.485464e+00 -1.613553e+00 -1.272080e+00 9.718723e-01 1.539668e-01 1.569564e-01 2.846870e-01 2.271934e-01 2.624418e-01 1.986051e-01 2.616911e-01 2.687902e-01 3.069571e-01 1.815207e-01 1.799373e-01 1.681098e-01 -1.630420e-03 1.731042e-02 4.962624e-02 3.383611e-02 7.084904e-03 2.242257e-02 3.942953e-02 5.849789e-02 5.358869e-02 6.163928e-02 4.749727e-02 1.479931e-02 7.294207e-02 -6.449496e-04
<VARIANCE> 39
 2.566717e+00 3.073105e+00 5.021790e+00 6.285583e+00 5.975782e+00 5.415745e+00 8.713154e+00 6.112322e+00 5.553150e+00 6.958268e+00 1.109763e+01 8.739974e+00 8.178990e-04 8.037999e-02 1.336661e-01 2.186688e-01 2.823356e-01 4.459826e-01 3.253602e-01 4.441305e-01 4.288908e-01 3.426560e-01 3.621839e-01 3.623348e-01 2.595694e-01 3.754082e-05 9.402779e-03 1.426984e-02 2.813672e-02 2.928957e-02 5.833740e-02 5.550274e-02 6.236809e-02 4.498005e-02 4.937970e-02 5.990428e-02 4.697652e-02 4.976865e-02 3.730629e-06
<GCONST> 8.212250e+00
<MIXTURE> 2 6.255965e-02
<MEAN> 39
 -2.026676e+00 -7.807508e-01 -4.343126e+00 -3.526136e+00 -4.414915e+00 -4.401999e+00 -4.185674e+00 -4.977060e+00 -4.021629e+00 -4.039032e+00 -3.794819e+00 -1.554955e+00 9.617263e-01 3.104110e-01 2.506520e-01 2.823054e-01 2.854592e-01 3.286653e-01 1.991657e-01 4.706110e-01 3.902585e-01 1.314767e-01 2.484570e-01 2.687469e-01 2.607884e-01 -3.534903e-03 1.721880e-01 3.125800e-01 4.074788e-01 3.798912e-01 4.413204e-01 3.773220e-01 4.153438e-01 4.875388e-01 3.715475e-01 3.838513e-01 3.148436e-01 2.451589e-01 -7.645995e-04
<VARIANCE> 39
 5.845150e+00 4.030617e+00 6.432890e+00 8.404557e+00 1.223200e+01 7.459579e+00 8.396236e+00 9.339190e+00 1.260143e+01 1.080420e+01 2.014895e+01 1.377538e+01 1.248130e-03 1.630294e-01 2.932129e-01 5.660929e-01 4.027221e-01 9.012682e-01 7.196870e-01 7.848264e-01 8.705801e-01 6.967056e-01 6.360310e-01 9.847675e-01 6.512397e-01 3.754082e-05 2.864178e-02 6.749756e-02 8.180732e-02 7.097244e-02 1.677360e-01 7.806302e-02 1.040770e-01 1.608438e-01 1.420180e-01 9.664988e-02 1.575690e-01 1.250550e-01 3.730629e-06
<GCONST> 3.423776e+01
<MIXTURE> 3 1.139241e-01
<MEAN> 39
 -1.204935e+00 2.641196e+00 -1.239635e-01 5.445095e-01 4.933918e-01 3.584361e-01 -5.474684e-02 4.297299e-01 6.913155e-02 -1.642052e-01 -2.544409e-01 7.002411e-01 9.742382e-01 1.150891e-01 1.371714e-01 8.641309e-02 1.199266e-01 9.268754e-02 2.035878e-01 2.064163e-01 1.291434e-01 1.939770e-01 6.071512e-02 2.740010e-02 6.180478e-02 -1.208687e-03 -5.036952e-02 -1.674689e-01 -1.673245e-01 -1.933045e-01 -2.376863e-01 -1.911725e-01 -1.790351e-01 -2.229469e-01 -1.583981e-01 -1.440492e-01 -1.258397e-01 -1.162308e-01 -8.931730e-04
<VARIANCE> 39
 2.472967e+00 3.107166e+00 4.225031e+00 5.116451e+00 5.183081e+00 4.930306e+00 1.178854e+01 6.405052e+00 6.890239e+00 6.699325e+00 1.191325e+01 7.282441e+00 8.178990e-04 1.021730e-01 1.785181e-01 2.520861e-01 4.030105e-01 3.396426e-01 4.673993e-01 4.597310e-01 4.135485e-01 3.813929e-01 4.685408e-01 5.203062e-01 4.574308e-01 3.754082e-05 2.015795e-02 3.626344e-02 5.684126e-02 8.253701e-02 9.192337e-02 7.771340e-02 1.081828e-01 1.165664e-01 7.557869e-02 7.712638e-02 1.048533e-01 6.815308e-02 3.730629e-06
<GCONST> 1.791936e+01
<MIXTURE> 4 1.420021e-01
<MEAN> 39
 -1.887412e-01 1.367858e+01 -4.200294e+00 -1.175521e+00 -6.094379e+00 -7.147993e+00 -4.400150e+00 -5.847412e-01 -4.311225e+00 -7.245620e-01 -5.703223e+00 5.994725e-01 8.831933e-01 -2.477421e-02 -1.597597e-01 -4.163431e-02 -1.625778e-01 1.917816e-01 -1.862031e-01 1.634305e-01 -1.536243e-01 2.845244e-01 -4.769523e-02 1.940687e-01 -3.926252e-01 -1.814256e-03 8.966656e-03 -8.878517e-02 1.056429e-01 -1.530764e-01 1.459928e-01 -6.469227e-02 4.065017e-02 -6.350900e-03 7.469471e-02 -3.064862e-02 1.646281e-01 -1.166712e-01 -1.682383e-03
<VARIANCE> 39
 1.189016e+01 2.613845e+01 1.526871e+01 1.404706e+01 1.520999e+01 2.697451e+01 2.261488e+01 3.154977e+01 2.285913e+01 2.906216e+01 2.092388e+01 3.045749e+01 4.522549e-03 1.794265e-01 2.764384e-01 6.585446e-01 6.789468e-01 7.504790e-01 8.281572e-01 8.933566e-01 1.004766e+00 9.043142e-01 8.941153e-01 9.230888e-01 8.189192e-01 4.069757e-05 2.520133e-02 4.312750e-02 1.008967e-01 9.991243e-02 1.296559e-01 1.302606e-01 1.865312e-01 1.358214e-01 1.825684e-01 1.403699e-01 1.595122e-01 1.654444e-01 6.381187e-06
<GCONST> 4.949570e+01
<MIXTURE> 5 1.132714e-01
<MEAN> 39
 4.041080e-01 2.180370e+00 -7.978639e-01 -5.044267e-01 -6.474379e-01 -1.565032e+00 -4.067427e-01 -1.082293e+00 -8.554035e-01 -9.029734e-01 -1.631660e+00 3.651529e-01 9.411664e-01 3.689396e-01 6.345002e-02 2.584927e-01 3.310067e-01 3.003820e-01 6.145483e-02 2.755303e-01 9.408556e-02 4.098115e-01 4.812019e-01 1.525787e-01 4.501704e-02 -6.829308e-03 -2.397692e-02 -2.605930e-02 -1.035665e-01 -6.233948e-02 -1.427680e-01 -7.767844e-02 -1.478657e-01 -5.976380e-02 -3.383441e-02 -3.097674e-03 6.205472e-02 -4.120122e-02 -1.042871e-03
<VARIANCE> 39
 5.929640e+00 5.378794e+00 1.065042e+01 9.221352e+00 1.081173e+01 1.423446e+01 1.589110e+01 1.208250e+01 1.133049e+01 1.119463e+01 1.632384e+01 1.012685e+01 1.563734e-03 2.612523e-01 5.277817e-01 7.580287e-01 8.542665e-01 1.167510e+00 1.111340e+00 1.511755e+00 1.414952e+00 1.213578e+00 8.412569e-01 9.228373e-01 6.880074e-01 3.754082e-05 4.334760e-02 7.337723e-02 1.182762e-01 1.259276e-01 1.748088e-01 2.037623e-01 2.115777e-01 1.746313e-01 1.950493e-01 1.538410e-01 1.617510e-01 1.264465e-01 3.730629e-06
<GCONST> 4.500650e+01
<MIXTURE> 6 4.189445e-02
<MEAN> 39
 -1.983832e+00 1.157694e+01 -3.899154e+00 -1.879020e+00 -6.914457e+00 -5.960228e+00 1.350490e-01 -1.181913e-01 3.730966e+00 2.589439e+00 2.981043e+00 4.856214e+00 8.865387e-01 1.780162e-01 1.711492e-01 4.393342e-01 3.264343e-01 7.390103e-01 2.856108e-01 5.893241e-01 2.885276e-01 1.980951e-01 4.984172e-01 1.901939e-01 -7.139282e-02 3.978788e-03 5.007850e-02 -2.500178e-01 -1.190329e-01 -2.767015e-01 1.258467e-01 -6.912127e-02 -2.977723e-01 -8.181795e-02 -9.928259e-02 -6.870229e-02 1.982441e-02 -1.278283e-01 -3.169426e-03
<VARIANCE> 39
 1.167621e+01 2.430163e+01 3.407657e+01 2.808935e+01 3.181535e+01 3.340989e+01 2.869217e+01 3.944197e+01 5.869775e+01 1.127185e+02 9.924876e+01 1.207422e+02 1.127055e-02 7.085652e-01 8.161193e-01 8.734110e-01 1.104418e+00 2.337877e+00 1.345785e+00 9.780928e-01 1.339291e+00 1.788819e+00 1.627404e+00 2.167487e+00 1.980453e+00 9.040071e-05 1.083575e-01 1.525788e-01 2.666465e-01 2.408571e-01 3.106247e-01 4.089147e-01 3.090381e-01 3.960729e-01 3.398570e-01 4.891107e-01 4.716951e-01 4.679611e-01 2.895262e-05
<GCONST> 8.117254e+01
<MIXTURE> 7 8.547959e-02
<MEAN> 39
 8.492061e-01 1.412522e+01 -3.624295e+00 1.702304e+00 -5.169611e+00 -4.382821e+00 -2.393283e+00 -9.059116e-01 -8.334120e-01 1.267274e+00 -1.503948e-01 5.482450e+00 8.974879e-01 -2.530577e-01 -2.874381e-02 -1.237135e-01 -3.784650e-01 3.074065e-02 -5.339591e-02 6.375536e-02 -6.100577e-02 2.827322e-02 4.865580e-02 2.335669e-01 -1.430484e-01 -2.425191e-05 -2.085509e-01 -2.651390e-01 -2.077177e-01 -5.515741e-01 -1.670614e-01 -3.959908e-01 -1.583336e-01 -2.711650e-01 -1.437885e-01 -3.203087e-01 -1.768444e-01 -3.092813e-01 -1.423471e-03
<VARIANCE> 39
 1.715774e+01 2.537574e+01 1.499525e+01 1.328028e+01 1.753929e+01 1.951955e+01 2.031603e+01 2.981920e+01 1.993824e+01 2.863233e+01 5.157957e+01 6.843629e+01 5.678894e-03 1.989733e-01 2.559162e-01 3.771856e-01 5.786864e-01 8.019549e-01 1.201531e+00 8.666755e-01 6.867437e-01 8.998839e-01 1.391007e+00 1.417898e+00 1.155992e+00 3.754082e-05 4.234921e-02 9.562153e-02 1.279572e-01 1.064106e-01 1.553645e-01 2.711172e-01 2.100882e-01 2.821888e-01 1.949890e-01 2.998959e-01 2.022759e-01 2.482113e-01 5.687965e-06
<GCONST> 5.640202e+01
<MIXTURE> 8 6.797490e-02
<MEAN> 39
 -7.204871e-01 1.586713e+00 -9.603608e-01 -1.434417e-01 -1.950285e-01 2.635605e-01 -4.396260e-01 -8.041824e-01 -2.319367e-01 -4.452502e-01 -1.001061e+00 3.074593e-01 9.706510e-01 -1.616783e-01 -6.031265e-01 -7.555508e-01 -6.684839e-01 -7.642512e-01 -6.392802e-01 -8.370879e-01 -9.549486e-01 -5.715793e-01 -6.610416e-01 -4.150679e-01 -4.722590e-01 -1.088661e-03 -6.668729e-02 -1.269728e-01 -1.193853e-01 -1.483528e-01 -1.806324e-01 -2.476366e-01 -1.710113e-01 -1.486827e-01 -2.150546e-01 -1.576573e-01 -1.315715e-01 -1.494685e-01 -6.565460e-04
<VARIANCE> 39
 2.958226e+00 3.079256e+00 4.860440e+00 6.230998e+00 7.057346e+00 5.926207e+00 8.403388e+00 6.181699e+00 6.421184e+00 8.873495e+00 1.311903e+01 8.159550e+00 8.178990e-04 1.146637e-01 2.204254e-01 1.968360e-01 4.182738e-01 4.951642e-01 5.981370e-01 5.865616e-01 6.153957e-01 6.988986e-01 4.546286e-01 1.272500e+00 6.463118e-01 3.754082e-05 1.755986e-02 3.745234e-02 4.194929e-02 6.464263e-02 8.589575e-02 7.366490e-02 7.343613e-02 9.968173e-02 7.594078e-02 9.345540e-02 1.470652e-01 7.994662e-02 3.730629e-06
<GCONST> 2.153793e+01
<MIXTURE> 9 6.730082e-02
<MEAN> 39
 -1.925217e+00 -7.583933e-02 -3.309303e+00 -2.487056e+00 -2.635971e+00 -2.585799e+00 -3.098683e+00 -3.408457e+00 -2.890532e+00 -2.865417e+00 -2.524698e+00 -1.082984e+00 9.714466e-01 -1.608582e-01 -4.529346e-01 -5.116755e-01 -4.884804e-01 -5.740742e-01 -7.076054e-01 -5.619847e-01 -6.456461e-01 -6.429762e-01 -5.984797e-01 -4.699277e-01 -5.069623e-01 -1.199806e-03 9.071043e-02 1.676369e-01 2.434044e-01 1.694026e-01 2.022975e-01 1.444453e-01 2.359717e-01 3.317648e-01 1.740442e-01 1.901997e-01 9.726463e-02 1.230662e-01 -9.724560e-04
<VARIANCE> 39
 3.409930e+00 2.115491e+00 5.333089e+00 7.923254e+00 9.797712e+00 6.503305e+00 8.415871e+00 7.759318e+00 9.524624e+00 9.509143e+00 1.468793e+01 1.491605e+01 8.178990e-04 1.452585e-01 1.860304e-01 2.384302e-01 3.508994e-01 6.241765e-01 3.735626e-01 5.282564e-01 6.854703e-01 5.563748e-01 5.481954e-01 9.727557e-01 5.609438e-01 3.754082e-05 1.286742e-02 2.723181e-02 6.129339e-02 5.236215e-02 1.017146e-01 7.131556e-02 7.769869e-02 1.321852e-01 8.311510e-02 7.350328e-02 1.455825e-01 7.577461e-02 3.730629e-06
<GCONST> 2.266345e+01
<MIXTURE> 10 1.823938e-01
<MEAN> 39
 -1.674793e+00 1.640364e+01 7.380176e-01 -2.866580e+00 -4.524885e+00 -4.623676e+00 -1.013939e+01 -5.031766e-01 9.698395e-02 -4.895828e+00 6.008729e+00 -4.255551e+00 8.722173e-01 1.086305e-02 -5.131970e-02 4.622264e-02 -1.895941e-01 1.847192e-01 -1.612442e-01 7.451060e-02 -3.447643e-02 3.376963e-01 7.610932e-02 1.869076e-02 1.006022e-01 -1.212106e-03 4.373478e-03 -1.004986e-01 1.656495e-02 -6.174886e-02 9.212244e-02 -4.658130e-02 6.947839e-02 -4.412745e-03 7.721865e-02 8.591748e-02 -1.232121e-01 6.647072e-02 -2.059208e-03
<VARIANCE> 39
 8.009604e+00 2.607470e+01 1.545048e+01 1.834994e+01 1.757587e+01 2.077458e+01 2.538085e+01 2.155491e+01 1.958928e+01 2.447742e+01 1.410137e+01 1.320965e+01 4.463875e-03 2.750888e-01 3.843179e-01 4.256099e-01 6.337045e-01 4.424713e-01 4.964365e-01 6.677927e-01 6.597705e-01 6.306247e-01 6.297159e-01 5.024794e-01 4.987279e-01 6.258602e-05 5.527832e-02 7.600266e-02 8.066668e-02 1.214935e-01 9.905057e-02 1.368113e-01 1.147766e-01 1.244498e-01 1.101410e-01 1.062765e-01 9.932918e-02 9.810804e-02 6.447925e-06
<GCONST> 4.330204e+01
<STATE> 7
<NUMMIXES> 10
<MIXTURE> 1 3.363044e-02
<MEAN> 39
 -4.029936e+00 9.570735e+00 -3.555674e+00 -6.756880e+00 -7.126915e+00 -5.693811e+00 6.690119e+00 6.287619e+00 2.120295e+01 1.785708e+01 9.005463e+00 4.089756e+00 9.747179e-01 2.874878e-01 2.233661e-01 1.758270e-01 1.443115e-01 8.299735e-02 8.087321e-02 3.251895e-02 4.596731e-01 4.267098e-01 -6.628459e-02 9.379952e-02 -7.629184e-01 1.527814e-03 -4.929099e-03 1.182427e-01 1.417169e-01 1.146158e-03 1.510430e-01 3.479432e-02 8.541244e-02 1.364865e-02 -1.263861e-01 9.078392e-02 1.376864e-01 2.189599e-02 -1.125375e-03
<VARIANCE> 39
 1.761929e+00 1.686873e+01 9.245911e+00 6.279553e+00 6.635432e+00 2.945472e+00 3.712180e+00 2.392042e+01 7.888748e+00 5.721045e+00 7.794947e+00 6.155694e+01 8.178990e-04 2.393200e-01 3.339448e-01 5.532274e-01 5.723298e-01 4.701710e-01 1.463411e-01 3.688378e-01 5.775827e-01 4.989460e-01 8.076682e-01 1.319791e-01 5.586360e-01 3.754082e-05 5.138261e-02 2.496340e-02 5.570718e-02 6.335717e-02 7.052007e-02 4.256631e-02 4.901133e-02 8.732247e-02 7.349513e-02 1.580543e-01 3.371308e-02 6.734840e-02 3.730629e-06
<GCONST> 2.124816e+01
<MIXTURE> 2 3.898669e-02
<MEAN> 39
 5.071341e-01 1.221113e+01 -2.968356e+00 1.283878e-01 -6.641552e+00 -4.397841e+00 3.717260e+00 8.546194e+00 1.573729e+01 1.603897e+01 1.213103e+01 5.469024e+00 9.336336e-01 -3.822788e-02 1.327429e-01 6.290782e-02 -3.647328e-01 3.577462e-01 -5.323966e-01 -7.341292e-02 3.061315e-01 1.196703e-01 -3.670446e-03 -1.635874e-01 -2.289756e-01 -5.016059e-03 -3.288527e-01 -2.817257e-01 -3.265677e-01 -3.538893e-01 -1.153023e-01 -1.404235e-01 -3.470021e-02 -2.479756e-01 1.163918e-01 1.897369e-01 4.967590e-02 2.088975e-01 -3.823377e-03
<VARIANCE> 39
 1.570154e+01 1.541555e+01 2.578591e+01 1.106799e+01 1.203177e+01 8.658194e+00 3.311818e+01 1.034327e+01 8.515897e+00 1.209667e+01 1.728244e+01 4.110514e+01 2.441710e-03 8.779861e-01 8.884561e-01 8.453432e-01 5.832015e-01 5.560305e-01 7.788833e-01 5.588245e-01 1.274078e+00 1.561968e+00 7.238267e-01 1.367100e+00 1.362404e+00 7.260926e-05 7.360941e-02 1.943013e-01 8.801815e-02 1.020890e-01 7.574996e-02 2.210940e-01 1.434024e-01 2.264723e-01 2.040593e-01 2.108635e-01 1.874895e-01 1.921015e-01 4.789338e-06
<GCONST> 5.237551e+01
<MIXTURE> 3 1.504744e-01
<MEAN> 39
 -2.702238e+00 1.104119e+01 2.058093e-01 -2.058705e+00 -6.095232e+00 -4.189392e+00 -4.713898e+00 -6.802311e-01 -6.940628e-01 -5.624075e+00 -8.317433e-02 -2.544975e+00 8.996212e-01 1.909215e-01 -4.624046e-02 2.862121e-02 1.572455e-01 1.236198e-01 9.868395e-02 -1.490320e-01 7.042135e-02 -9.723378e-02 5.075148e-01 3.881752e-01 -1.543986e-01 -7.215204e-03 1.854256e-01 -1.323618e-01 -9.957928e-02 4.417948e-03 2.299236e-01 7.640421e-02 -1.142767e-02 -1.383472e-01 -1.811515e-01 2.267795e-01 8.529216e-02 8.895587e-02 -3.849972e-03
<VARIANCE> 39
 1.128910e+01 2.970193e+01 1.334952e+01 2.151765e+01 1.574067e+01 2.161049e+01 4.205788e+01 1.962530e+01 2.161535e+01 2.567144e+01 3.038066e+01 3.116936e+01 3.662355e-03 3.032123e-01 2.737062e-01 8.066737e-01 6.966966e-01 1.207914e+00 5.530421e-01 9.511744e-01 1.066498e+00 1.370083e+00 1.298521e+00 1.299725e+00 1.079750e+00 8.688285e-05 5.192488e-02 5.080365e-02 1.067209e-01 1.147442e-01 2.109415e-01 1.443782e-01 3.321337e-01 1.764899e-01 1.805463e-01 2.294808e-01 1.872795e-01 2.149439e-01 1.393926e-05
<GCONST> 5.712436e+01
<MIXTURE> 4 6.167905e-02
<MEAN> 39
 -2.003892e+00 1.118030e+01 -5.079099e+00 -1.725716e+00 -4.867716e+00 -5.799533e+00 -6.324644e-01 -2.561394e+00 1.715336e+00 5.312981e+00 9.697414e+00 1.385397e+01 9.246343e-01 -4.812150e-01 -5.684783e-01 5.014252e-02 -9.149495e-01 -5.850692e-02 -7.502954e-01 -4.109920e-01 -3.677660e-01 -4.143716e-01 1.633958e-01 -6.974751e-02 -1.352839e-01 3.550964e-05 8.801439e-02 -2.791792e-01 3.192515e-02 -3.092620e-01 1.126016e-02 -2.128051e-01 -3.430585e-01 -6.140926e-02 -1.257494e-01 -3.804141e-01 -5.778611e-01 -6.699505e-01 -6.257298e-03
<VARIANCE> 39
 1.761811e+01 2.293129e+01 2.911023e+01 2.392550e+01 3.728495e+01 2.712471e+01 1.223811e+01 1.649224e+01 2.150370e+01 3.087045e+01 3.881104e+01 9.713635e+01 4.009532e-03 5.513299e-01 6.091359e-01 8.324997e-01 7.724215e-01 1.841887e+00 1.382822e+00 1.372641e+00 1.380614e+00 1.274369e+00 1.723007e+00 2.495971e+00 2.545905e+00 9.586889e-05 9.804270e-02 7.467468e-02 2.085032e-01 1.857532e-01 4.134879e-01 2.198357e-01 2.903198e-01 4.260314e-01 1.821556e-01 5.080702e-01 3.619435e-01 5.152000e-01 2.323397e-05
<GCONST> 7.170406e+01
<MIXTURE> 5 1.843680e-01
<MEAN> 39
 1.094789e+00 1.298655e+01 -1.232788e+00 1.172192e+00 -2.093843e+00 -5.897509e+00 -6.023184e+00 -6.469805e-01 -1.137662e+00 1.297384e+00 1.546585e+00 -4.149113e-01 8.622640e-01 2.982785e-01 -1.790396e-01 1.628773e-01 1.599559e-01 2.528466e-01 -3.316797e-02 1.598978e-02 1.306148e-01 4.123609e-01 3.670766e-01 -2.990690e-03 -1.148062e-01 -1.214035e-02 9.809303e-02 -1.041087e-01 6.826636e-02 -1.258752e-01 3.292659e-02 1.159585e-01 1.449808e-01 8.276431e-02 -6.452726e-03 -1.538237e-01 -1.087728e-01 -1.027227e-01 -3.582669e-03
<VARIANCE> 39
 6.854155e+00 3.776922e+01 1.217485e+01 1.759191e+01 1.087381e+01 2.015497e+01 3.254860e+01 1.256668e+01 2.358929e+01 2.633924e+01 1.948446e+01 1.616034e+01 3.983489e-03 1.842288e-01 2.911525e-01 4.246218e-01 5.379567e-01 6.067315e-01 7.400535e-01 1.023179e+00 7.829404e-01 8.287272e-01 9.207522e-01 8.826432e-01 7.617415e-01 3.754082e-05 3.930708e-02 5.246676e-02 1.229460e-01 7.217325e-02 8.122194e-02 1.191902e-01 1.542663e-01 1.213022e-01 1.769706e-01 1.851379e-01 1.325156e-01 1.459213e-01 6.985896e-06
<GCONST> 4.561984e+01
<MIXTURE> 6 6.624594e-02
<MEAN> 39
 -1.126612e+00 1.312020e+01 -5.694503e+00 1.257057e-02 -5.511814e+00 -8.243772e+00 -4.059935e+00 -1.137665e-01 -3.207817e+00 7.060835e-01 -6.483860e+00 1.807701e+00 8.895173e-01 -3.834915e-01 -2.522855e-01 1.733325e-01 -8.820077e-01 6.751540e-01 -7.286758e-01 1.166748e+00 -2.340854e-01 1.225090e+00 -5.788212e-01 7.846459e-01 -1.095009e+00 -1.292459e-03 9.229042e-02 -3.041320e-01 3.981231e-01 -4.931946e-01 4.681132e-01 -7.080298e-02 1.897523e-01 -1.124878e-01 -6.351791e-02 -1.243960e-01 2.032281e-01 -2.304969e-01 -3.667249e-03
<VARIANCE> 39
 8.086588e+00 2.356754e+01 1.158054e+01 2.949216e+01 5.069618e+00 8.080741e+00 1.015105e+01 2.838505e+01 3.905972e+01 1.803341e+01 1.717840e+01 3.973880e+01 3.352017e-03 3.152629e-01 4.440794e-01 4.690623e-01 5.822036e-01 9.326884e-01 1.129090e+00 1.406914e+00 1.343891e+00 1.030023e+00 9.084389e-01 7.169552e-01 7.483463e-01 3.754082e-05 6.639690e-02 1.087046e-01 1.667810e-01 1.875868e-01 1.825810e-01 2.695463e-01 2.471035e-01 2.670700e-01 3.573426e-01 1.399970e-01 2.074147e-01 1.591437e-01 1.243637e-05
<GCONST> 5.424088e+01
<MIXTURE> 7 7.997710e-02
<MEAN> 39
 -6.725269e-02 1.539228e+01 -5.550048e+00 1.275790e-02 -6.056158e+00 -5.573922e+00 5.577444e-01 -3.353927e+00 -2.323181e-01 -1.775339e+00 -2.568703e+00 5.105644e+00 8.962463e-01 -5.230658e-01 -7.167129e-01 -3.494838e-01 -1.403269e+00 1.274650e-01 -1.225390e+00 2.880220e-02 -5.910133e-01 -2.365999e-01 -4.990063e-01 3.047375e-02 -8.025953e-01 -2.654888e-03 -4.910704e-02 -4.043441e-01 2.006411e-01 -5.599434e-01 6.621902e-02 -3.633003e-01 -2.672436e-01 2.960921e-02 -2.897522e-01 -9.733012e-02 -1.031465e-01 -3.475328e-01 -3.429015e-03
<VARIANCE> 39
 1.734881e+01 2.837209e+01 1.380125e+01 1.452485e+01 9.704002e+00 2.417909e+01 1.025340e+01 1.727926e+01 1.974133e+01 2.254727e+01 2.618137e+01 5.468074e+01 4.979733e-03 2.552343e-01 2.357774e-01 4.598807e-01 7.985831e-01 9.900821e-01 1.116332e+00 1.057444e+00 8.800848e-01 9.754171e-01 1.023598e+00 1.174480e+00 9.866298e-01 3.754082e-05 4.415781e-02 8.112346e-02 8.932607e-02 1.757207e-01 1.219917e-01 1.556931e-01 1.621510e-01 1.410081e-01 1.592650e-01 1.603258e-01 1.341503e-01 2.689281e-01 6.469797e-06
<GCONST> 5.158003e+01
<MIXTURE> 8 1.006477e-01
<MEAN> 39
 -6.771604e-01 1.213903e+01 -7.227883e+00 -2.831471e+00 -9.004731e+00 -1.084862e+01 -6.388584e+00 -4.721942e+00 -5.290302e+00 -2.543163e+00 -7.464802e+00 -4.768356e-01 8.887569e-01 -5.613472e-01 -5.171796e-01 -4.850065e-01 -1.201186e+00 -4.897845e-01 -8.182626e-01 -2.343574e-01 -8.419917e-01 -3.144093e-01 -9.461918e-01 -3.116530e-02 -7.667181e-01 -2.436237e-03 1.618113e-01 1.081090e-01 4.705653e-01 2.078825e-02 5.686810e-01 3.387986e-01 5.165192e-01 4.616334e-01 3.602534e-01 2.119584e-01 5.475109e-01 1.195151e-01 -2.958023e-03
<VARIANCE> 39
 9.921524e+00 3.755703e+01 1.434431e+01 1.764968e+01 1.353348e+01 2.460625e+01 1.977687e+01 3.695038e+01 2.139446e+01 1.822483e+01 2.742895e+01 3.596660e+01 5.034285e-03 3.254436e-01 3.656083e-01 5.552053e-01 7.796611e-01 7.714902e-01 1.491983e+00 1.087283e+00 1.041146e+00 8.919242e-01 1.057976e+00 1.189447e+00 1.039736e+00 6.396847e-05 5.142228e-02 7.128166e-02 1.254854e-01 1.753336e-01 1.286422e-01 1.934363e-01 1.687164e-01 1.748410e-01 1.533389e-01 2.810024e-01 2.024258e-01 1.910077e-01 7.486832e-06
<GCONST> 5.605660e+01
<MIXTURE> 9 9.872821e-02
<MEAN> 39
 3.004938e+00 1.230047e+01 -2.834927e+00 7.504366e-02 -3.386587e+00 -3.554783e+00 -2.953416e+00 -6.453322e-01 4.950570e-01 1.011776e+00 -1.188276e+00 -2.329557e+00 7.859120e-01 8.871063e-01 -1.945138e-01 -9.339521e-01 2.774976e-01 6.160847e-01 -6.363682e-02 -8.474894e-02 -3.768558e-01 5.492724e-01 7.073978e-01 -3.645547e-01 -2.625086e-03 -8.835366e-04 1.016068e-01 4.593290e-02 -2.251047e-01 1.101150e-01 6.192711e-02 -1.871425e-01 -2.844943e-02 7.745921e-03 5.785340e-02 -1.891694e-01 -8.921686e-02 1.527805e-01 1.279126e-03
<VARIANCE> 39
 1.041170e+01 3.910124e+01 2.021942e+01 1.007614e+01 2.043448e+01 2.533770e+01 1.868407e+01 2.028115e+01 1.117020e+01 4.413606e+01 3.894447e+01 1.381178e+01 1.164509e-02 5.400839e-01 7.888538e-01 1.090068e+00 1.098635e+00 1.563540e+00 2.957121e+00 1.553024e+00 2.054316e+00 1.845792e+00 1.671882e+00 1.983334e+00 2.345291e+00 6.582095e-05 7.602875e-02 9.742728e-02 1.295534e-01 1.232914e-01 2.752996e-01 2.874559e-01 2.352226e-01 3.660426e-01 1.894261e-01 3.058102e-01 2.709077e-01 2.813400e-01 6.749286e-06
<GCONST> 6.691943e+01
<MIXTURE> 10 1.852620e-01
<MEAN> 39
 -2.136028e+00 1.680899e+01 4.647904e-02 -3.985722e+00 -5.463503e+00 -5.165951e+00 -1.056195e+01 -1.162214e+00 1.443281e+00 -5.784904e+00 5.816904e+00 -5.077647e+00 8.824896e-01 -2.378445e-01 -4.749240e-01 3.025054e-01 -1.122847e+00 6.308797e-01 -5.210375e-01 3.688568e-01 -1.128610e-01 5.824568e-01 3.122500e-01 -2.623667e-01 4.373736e-01 2.466486e-03 3.788696e-02 -2.954782e-01 2.752402e-01 -3.064848e-01 2.118902e-01 -7.717139e-03 1.629370e-01 1.529589e-01 -1.124246e-02 2.191681e-01 -3.031988e-01 2.707832e-01 -2.736134e-03
<VARIANCE> 39
 1.275694e+01 2.416170e+01 1.781091e+01 1.516806e+01 1.643937e+01 2.203172e+01 2.013383e+01 2.853820e+01 2.831793e+01 2.299947e+01 1.516845e+01 1.436029e+01 4.909934e-03 1.836561e-01 2.953738e-01 3.788189e-01 5.476093e-01 5.791987e-01 7.315194e-01 6.590375e-01 8.773100e-01 1.174194e+00 8.715238e-01 1.028512e+00 5.979890e-01 7.870884e-05 3.649745e-02 6.697243e-02 1.050602e-01 1.317858e-01 8.923527e-02 1.537174e-01 1.669730e-01 1.970950e-01 1.248255e-01 1.242053e-01 9.676997e-02 9.998674e-02 1.377824e-05
<GCONST> 4.799844e+01
<STATE> 8
<NUMMIXES> 10
<MIXTURE> 1 7.364395e-03
<MEAN> 39
 -8.252272e+00 3.486199e+00 -9.200541e+00 -1.221289e+00 -5.677534e+00 -6.701384e+00 -5.461607e+00 -7.122234e+00 5.642238e+00 7.112652e+00 1.611882e+01 2.106156e+01 9.612963e-01 6.284205e-01 -1.642680e-01 -1.345193e-01 2.751418e-01 9.353241e-01 4.305236e-01 -4.155757e-01 -7.318571e-01 2.218335e+00 2.339862e+00 3.907445e-01 -1.160658e+00 2.024648e-03 4.039721e-01 4.731253e-01 5.854922e-01 3.609892e-01 8.168203e-01 5.027612e-01 3.908260e-01 3.716107e-01 2.267651e-01 -3.918892e-02 -3.035712e-01 -1.307060e-01 5.498088e-04
<VARIANCE> 39
 2.372129e+00 2.747046e+00 1.557583e+00 5.524559e+00 4.679408e+00 4.179606e+00 1.743455e+01 1.091818e+01 1.683866e+01 1.010657e+01 1.265199e+01 1.446690e+01 1.543185e-03 1.256584e+00 6.070010e-01 5.453337e-01 9.922809e-01 1.311206e+00 1.446291e+00 4.934008e-01 8.665810e-01 4.152480e-01 8.036139e-01 7.170573e-01 1.979722e+00 3.754082e-05 3.242339e-02 2.567363e-02 4.969169e-02 5.554527e-02 7.372761e-02 1.491955e-01 2.322518e-02 2.578678e-01 1.570072e-01 1.928724e-01 3.275289e-02 2.916530e-01 3.730629e-06
<GCONST> 3.250849e+01
<MIXTURE> 2 6.080327e-02
<MEAN> 39
 -2.887496e+00 1.323428e+01 -5.451686e+00 -6.537020e-01 -6.129946e+00 -8.927704e+00 1.424160e+00 -4.534561e+00 8.450736e-01 -5.203891e+00 -1.642379e+00 3.967109e+00 8.544894e-01 -2.734709e-01 -9.157203e-01 8.873306e-01 -2.183586e+00 1.675332e+00 -1.434729e+00 1.297073e+00 3.304892e-01 2.343855e-01 3.958748e-02 5.902554e-01 -5.954681e-01 -6.529525e-03 2.937517e-01 -5.102583e-01 5.539448e-01 -3.289572e-01 2.888566e-01 3.931039e-01 -4.790538e-01 4.401768e-01 -2.690037e-01 5.121318e-01 -2.159853e-02 -1.836623e-01 -3.322802e-03
<VARIANCE> 39
 2.575163e+01 3.196470e+01 2.843478e+01 1.374509e+01 2.625736e+01 2.507833e+01 1.852440e+01 1.468757e+01 1.572182e+01 2.692565e+01 3.172194e+01 4.492450e+01 1.218440e-02 7.712576e-01 1.167886e+00 1.154294e+00 2.260105e+00 1.642490e+00 2.492785e+00 3.383275e+00 1.435307e+00 2.442928e+00 1.241744e+00 1.689623e+00 1.690699e+00 1.606318e-04 4.322943e-02 1.757489e-01 2.539107e-01 2.058070e-01 4.445046e-01 1.922483e-01 2.727580e-01 2.081832e-01 3.239577e-01 4.669875e-01 2.527597e-01 2.904980e-01 3.094736e-05
<GCONST> 7.458128e+01
<MIXTURE> 3 8.711471e-02
<MEAN> 39
 -1.846004e+00 1.126766e+01 -5.658100e+00 -5.931150e+00 -7.137594e+00 -1.090851e+01 -4.480413e+00 -2.148422e+00 -4.942973e+00 -1.157157e+00 -6.952249e+00 -3.928352e+00 9.099901e-01 7.207162e-02 -5.569574e-01 5.511807e-01 -8.501907e-01 8.245327e-01 -8.251245e-02 1.042485e-01 3.690331e-02 4.325580e-01 -2.219259e-01 9.551021e-01 -8.099419e-01 -5.735265e-03 3.495249e-01 1.244452e-02 5.966019e-01 3.088774e-01 5.931624e-01 6.233589e-01 2.953923e-02 3.090274e-01 1.332629e-01 1.138229e-01 5.417285e-01 2.158145e-01 -6.984182e-03
<VARIANCE> 39
 1.009685e+01 2.240713e+01 9.309640e+00 1.971458e+01 1.444438e+01 2.153596e+01 2.383932e+01 3.905518e+01 3.609974e+01 2.867942e+01 3.069819e+01 4.883611e+01 4.289212e-03 2.618950e-01 5.143291e-01 4.884993e-01 9.872044e-01 6.961780e-01 9.903517e-01 1.599338e+00 9.982821e-01 2.111917e+00 9.450384e-01 1.353486e+00 1.427211e+00 5.519387e-05 7.134347e-02 8.884140e-02 1.351017e-01 1.601112e-01 1.983105e-01 2.081687e-01 3.015822e-01 3.511230e-01 3.308152e-01 3.467912e-01 2.749216e-01 3.325097e-01 1.985259e-05
<GCONST> 6.288571e+01
<MIXTURE> 4 8.415805e-02
<MEAN> 39
 7.499578e+00 1.337266e+01 -1.021754e+01 1.749875e+00 -2.858040e+00 -4.322244e+00 -3.827737e+00 -4.160318e+00 2.371738e+00 -1.116779e-01 -8.266331e+00 -2.615415e+00 7.953740e-01 6.462936e-01 -5.675877e-01 4.262806e-02 3.046846e-01 2.156280e-01 -3.607894e-01 -6.847661e-01 -8.551933e-02 1.378904e-01 -5.819017e-01 -2.861216e-01 2.993003e-01 -2.382549e-03 -1.439577e-01 -1.301060e-01 5.514091e-01 -1.269101e-02 -1.721160e-01 -2.797062e-01 -9.528411e-02 -2.180665e-02 -4.061870e-01 -3.124439e-01 3.395240e-01 2.781866e-01 -2.420819e-03
<VARIANCE> 39
 6.826577e+00 2.885733e+01 3.114209e+01 1.733097e+01 3.077637e+01 1.968920e+01 1.771506e+01 5.496003e+01 4.626169e+01 5.668440e+01 3.200517e+01 4.758429e+01 5.272232e-03 2.951939e-01 5.077109e-01 1.964598e+00 1.689111e+00 1.560158e+00 2.239100e+00 1.526287e+00 2.801430e+00 2.606020e+00 2.044703e+00 2.051044e+00 1.455244e+00 1.186759e-04 4.332026e-02 7.622226e-02 2.050777e-01 2.528130e-01 2.546707e-01 3.198226e-01 2.898789e-01 3.107874e-01 3.249847e-01 3.727218e-01 2.456117e-01 2.988620e-01 9.234942e-06
<GCONST> 7.232442e+01
<MIXTURE> 5 1.008566e-01
<MEAN> 39
 -1.840816e+00 9.563595e+00 -3.605047e+00 -2.968625e+00 -6.907188e+00 -7.220605e+00 -5.389545e+00 -3.896508e+00 -5.028534e+00 -3.399778e+00 -4.919469e+00 -7.396148e-01 8.516930e-01 4.596724e-01 3.258754e-02 2.144644e-01 -1.085972e-02 5.656239e-01 4.874552e-01 4.023664e-01 2.363015e-01 -1.551903e-01 3.464009e-01 5.832195e-01 -6.634551e-03 -2.069327e-02 3.556726e-01 9.646043e-02 2.421600e-01 2.263137e-01 3.253349e-01 3.285955e-01 4.190217e-01 1.675736e-01 2.974057e-01 8.247270e-02 3.298867e-01 2.113165e-01 -6.636255e-03
<VARIANCE> 39
 1.994885e+01 2.962499e+01 1.922631e+01 1.011020e+01 1.244951e+01 2.066767e+01 2.543510e+01 1.967378e+01 1.181595e+01 1.789173e+01 1.989594e+01 3.349679e+01 4.662987e-03 4.351316e-01 4.446319e-01 1.183300e+00 9.123642e-01 1.185821e+00 1.595179e+00 1.945018e+00 1.199959e+00 1.309197e+00 1.624858e+00 1.680390e+00 1.328229e+00 8.819667e-05 7.080252e-02 7.302148e-02 1.126959e-01 1.302413e-01 1.402140e-01 1.389471e-01 3.036053e-01 2.426467e-01 2.765951e-01 1.946120e-01 2.249988e-01 2.335110e-01 2.659668e-05
<GCONST> 6.128730e+01
<MIXTURE> 6 1.672334e-01
<MEAN> 39
 1.538132e+00 8.391595e+00 -2.466555e+00 -4.473705e-01 -2.030252e+00 -3.078312e+00 -1.106301e+00 3.688392e-02 -1.424602e+00 7.913955e-02 -1.082146e+00 9.138892e-01 8.754162e-01 5.927147e-01 -3.194148e-01 3.797393e-01 -8.530948e-02 6.957041e-01 1.151804e-02 3.249317e-02 4.965018e-02 2.014976e-01 2.958212e-01 2.356793e-01 -2.350261e-01 -1.327556e-02 4.418468e-02 -1.905994e-01 2.085495e-01 2.314795e-02 -1.223763e-02 -2.557573e-02 -1.507224e-01 -1.563860e-01 -1.118954e-01 -1.566988e-01 -1.286242e-01 -1.101821e-01 -4.013531e-03
<VARIANCE> 39
 1.056973e+01 3.869152e+01 1.247689e+01 1.506131e+01 1.174355e+01 1.447698e+01 1.927064e+01 1.319594e+01 1.714494e+01 1.483289e+01 1.937637e+01 1.994495e+01 4.313491e-03 5.469077e-01 5.534685e-01 1.091308e+00 1.204663e+00 1.473014e+00 9.908854e-01 1.648232e+00 1.034137e+00 1.522603e+00 2.039084e+00 2.422152e+00 1.716008e+00 6.593951e-05 6.831903e-02 1.039381e-01 1.736760e-01 1.709252e-01 1.779032e-01 1.112784e-01 3.080465e-01 1.812879e-01 2.623781e-01 2.052189e-01 2.478409e-01 2.111920e-01 1.145541e-05
<GCONST> 6.005088e+01
<MIXTURE> 7 9.943855e-02
<MEAN> 39
 4.782080e+00 1.361941e+01 -5.115334e+00 1.725750e-01 -8.189445e-01 -8.418570e+00 -4.835001e+00 -9.376760e-01 3.515794e+00 -7.511559e-01 -1.550072e+00 1.159984e+00 7.553933e-01 4.641355e-01 -4.882048e-01 6.446880e-01 -7.171579e-02 3.149382e-01 -9.599467e-02 2.140630e-01 4.135334e-01 -2.800451e-01 2.215564e-01 3.134958e-01 3.910501e-01 -1.265396e-02 -1.848353e-01 -7.683194e-02 3.431205e-01 -5.372181e-02 -1.590114e-01 1.347251e-01 -1.508554e-02 -4.722504e-02 -3.461890e-01 -4.234873e-02 5.028342e-02 -1.449330e-01 -3.041280e-03
<VARIANCE> 39
 9.472709e+00 2.086224e+01 1.633873e+01 3.633205e+01 3.183598e+01 2.759216e+01 3.233470e+01 2.917291e+01 1.138046e+01 4.995888e+01 3.013645e+01 2.974298e+01 1.148956e-02 7.110121e-01 6.433670e-01 1.034800e+00 1.343000e+00 1.591593e+00 1.991601e+00 1.101483e+00 1.446950e+00 1.354982e+00 3.437248e+00 3.667015e+00 2.261039e+00 8.483496e-05 9.870248e-02 7.015999e-02 8.081629e-02 2.794622e-01 1.605796e-01 3.443341e-01 1.677749e-01 4.181353e-01 2.182013e-01 3.805751e-01 3.383223e-01 2.575684e-01 9.977728e-06
<GCONST> 7.033904e+01
<MIXTURE> 8 9.214928e-02
<MEAN> 39
 -2.815205e+00 1.072759e+01 -5.879348e+00 -3.425311e+00 -6.563221e+00 -6.208168e+00 2.953735e-01 -7.140100e-01 5.710701e+00 9.595823e+00 1.275881e+01 1.376389e+01 9.315966e-01 -2.626069e-01 -5.125172e-01 7.923117e-02 -9.510150e-01 3.580970e-01 -7.667505e-01 -2.479546e-01 -2.751148e-01 -3.410330e-01 -8.466460e-02 -6.073717e-01 -6.882688e-01 -1.046062e-02 2.897074e-01 -1.442453e-01 2.896094e-01 7.684052e-02 2.327549e-01 1.188030e-01 -1.299073e-01 -6.163843e-04 -2.304257e-01 -4.990445e-01 -6.742629e-01 -6.726501e-01 -9.512926e-03
<VARIANCE> 39
 1.620196e+01 1.696114e+01 2.286462e+01 1.916923e+01 4.765006e+01 2.117664e+01 2.828566e+01 2.774996e+01 6.271182e+01 5.104172e+01 5.963173e+01 8.557623e+01 3.626211e-03 1.079976e+00 8.274705e-01 1.328051e+00 1.772051e+00 2.267318e+00 1.617376e+00 1.761923e+00 2.223825e+00 1.208126e+00 2.219094e+00 2.765915e+00 2.684964e+00 1.373163e-04 1.466492e-01 1.394088e-01 3.610145e-01 1.941975e-01 3.402827e-01 1.952544e-01 4.217005e-01 2.730012e-01 3.129041e-01 3.889751e-01 3.602756e-01 6.732790e-01 3.415578e-05
<GCONST> 8.022610e+01
<MIXTURE> 9 6.502321e-02
<MEAN> 39
 -2.770787e+00 1.546599e+01 -8.388004e+00 -4.211386e+00 -9.583818e+00 -1.230280e+01 -5.154921e+00 -6.595556e+00 -3.778439e+00 -5.045430e+00 -5.520598e+00 1.255733e+00 8.844306e-01 -6.836480e-01 -5.861736e-01 4.675085e-01 -1.954146e+00 1.449180e+00 -6.177881e-01 1.745523e+00 8.151886e-01 1.115101e+00 1.766675e-01 9.422495e-01 -8.532298e-01 -9.151843e-03 2.906157e-01 -2.194900e-01 6.810619e-01 -1.761830e-01 7.450824e-01 5.121646e-01 6.975402e-01 9.185777e-01 3.956064e-01 5.005276e-01 1.383205e-01 -5.640491e-03 -5.633144e-03
<VARIANCE> 39
 1.126544e+01 2.435873e+01 1.021993e+01 2.220775e+01 1.541162e+01 2.177061e+01 1.358963e+01 2.219606e+01 1.137683e+01 1.224128e+01 1.601838e+01 2.370396e+01 3.275666e-03 5.811673e-01 9.396973e-01 1.303470e+00 1.317808e+00 1.495266e+00 1.501568e+00 1.796932e+00 2.093354e+00 1.815969e+00 2.021852e+00 1.680757e+00 1.425468e+00 1.283457e-04 1.584193e-01 1.664839e-01 3.286740e-01 2.686706e-01 1.277703e-01 3.755362e-01 2.987035e-01 3.311785e-01 3.205099e-01 3.587716e-01 1.986956e-01 3.127979e-01 2.560553e-05
<GCONST> 6.775298e+01
<MIXTURE> 10 2.358577e-01
<MEAN> 39
 -1.951113e+00 1.589590e+01 1.063696e+00 -3.981539e+00 -4.212227e+00 -5.841987e+00 -1.021130e+01 -6.985460e-01 6.893529e-01 -4.473496e+00 5.312036e+00 -3.968435e+00 8.648618e-01 1.288922e-01 -7.152583e-01 5.511943e-01 -1.084818e+00 7.382603e-01 -1.482315e-01 5.912379e-01 1.381451e-01 3.864743e-01 3.215368e-01 -5.143523e-01 5.076004e-01 -8.422830e-03 2.295205e-01 -3.297088e-01 2.251395e-01 6.019784e-03 1.254593e-01 3.541112e-01 3.499947e-01 2.186861e-01 -8.902723e-02 1.383839e-01 -3.467529e-01 9.314978e-02 -6.511733e-03
<VARIANCE> 39
 8.652456e+00 2.283742e+01 1.399542e+01 2.159556e+01 1.714307e+01 2.276587e+01 1.935168e+01 2.417155e+01 3.138235e+01 2.345198e+01 1.407204e+01 1.440060e+01 5.549520e-03 4.154576e-01 5.983416e-01 7.606281e-01 1.464013e+00 9.359126e-01 1.126326e+00 1.081507e+00 1.406862e+00 1.357527e+00 1.603612e+00 1.109954e+00 1.337352e+00 1.559053e-04 5.785341e-02 1.133053e-01 1.726362e-01 2.164616e-01 2.183480e-01 1.489571e-01 2.545127e-01 2.301315e-01 2.757179e-01 2.217313e-01 1.782686e-01 2.039872e-01 3.185252e-05
<GCONST> 6.206188e+01
<STATE> 9
<NUMMIXES> 10
<MIXTURE> 1 4.225341e-03
<MEAN> 39
 -3.437730e+00 1.367369e+01 -5.079326e+00 -6.516467e-01 -4.638316e+00 -1.212707e-01 3.562242e+00 3.209431e-01 6.096381e+00 1.581453e+00 -1.991758e+00 2.477258e+00 7.040696e-01 -1.356575e-01 -2.725085e-01 -7.453831e-01 -9.985303e-01 8.597643e-01 7.815385e-01 3.571235e+00 4.177114e+00 3.835290e+00 2.648004e+00 1.123269e+00 -9.346198e-01 1.475608e-02 1.783319e-01 -9.684802e-01 2.674505e-01 -1.186672e-01 8.516412e-01 5.074841e-01 2.081881e-01 5.909642e-01 -3.241291e-01 -1.644717e-01 2.005632e-01 6.642945e-02 1.660980e-03
<VARIANCE> 39
 7.866451e+00 2.529638e+02 2.368618e+01 1.170310e+02 2.468742e+01 7.271864e+01 3.849434e+00 1.741886e+01 8.894960e-01 5.663319e+00 2.751147e+00 1.364947e+01 3.311059e-02 5.418356e-01 6.720101e-01 4.160644e-01 2.168257e+00 7.812696e-01 1.008666e+00 5.453088e+00 4.645678e+00 2.478176e+00 2.199175e+00 1.090214e+00 2.245314e+00 1.280131e-03 2.394237e-01 8.621002e-01 1.201971e-01 1.438809e-02 7.273948e-01 4.252225e-01 2.614992e-01 3.873848e-01 1.184753e-02 3.679403e-02 1.567636e-01 1.957851e-01 4.623945e-05
<GCONST> 6.593970e+01
<MIXTURE> 2 5.872096e-02
<MEAN> 39
 -2.720387e+00 1.355279e+01 -4.875521e+00 -5.843135e+00 -3.259021e+00 -1.217170e+01 2.444717e+00 -1.377068e+00 1.540691e+00 -2.899855e+00 -3.611932e+00 -2.450261e+00 8.555394e-01 1.523510e-01 -1.729356e+00 1.376024e+00 -2.344984e+00 2.387870e+00 6.791955e-01 1.636617e+00 1.918621e+00 8.780466e-01 6.109603e-01 4.827122e-01 -6.696973e-01 -1.008797e-02 2.925725e-01 -5.776328e-01 4.212563e-01 2.342942e-01 -6.906575e-02 1.182874e+00 -5.550388e-01 2.539418e-01 -4.595731e-01 2.374766e-02 9.858552e-02 3.392499e-01 -3.650326e-03
<VARIANCE> 39
 9.292097e+00 2.529474e+01 7.276457e+00 1.548520e+01 1.767632e+01 1.630954e+01 1.960467e+01 2.709009e+01 8.915354e+00 1.707952e+01 1.869983e+01 2.842562e+01 3.369799e-03 5.275267e-01 1.043023e+00 2.249671e+00 1.385120e+00 1.340166e+00 1.621295e+00 2.100926e+00 2.346952e+00 2.108524e+00 2.892304e+00 2.161846e+00 1.792427e+00 2.898367e-04 1.370009e-01 1.769062e-01 1.607609e-01 1.955959e-01 5.477946e-01 2.285347e-01 3.752289e-01 3.848625e-01 2.108752e-01 5.154446e-01 2.631227e-01 4.261318e-01 3.970099e-05
<GCONST> 7.160205e+01
<MIXTURE> 3 1.744294e-01
<MEAN> 39
 1.526798e+00 1.019370e+01 -3.686070e+00 -1.420844e+00 -5.196882e+00 -6.413900e+00 -2.800487e+00 -2.508018e+00 -3.799582e+00 -2.802891e+00 -3.221771e+00 1.874760e+00 8.424987e-01 5.393580e-01 -1.286162e-01 8.318911e-01 4.068757e-01 8.536488e-01 2.582200e-01 -6.903778e-02 -2.996490e-01 9.210443e-02 1.877813e-01 7.323061e-01 -2.746599e-01 -2.269232e-02 4.220169e-02 -1.965334e-02 4.485869e-01 3.382975e-01 2.569922e-01 2.884385e-01 -3.632332e-02 -5.614583e-02 2.222442e-01 1.501190e-01 9.162421e-02 -6.797179e-02 -9.169091e-03
<VARIANCE> 39
 2.394082e+01 2.940600e+01 1.814339e+01 1.210829e+01 1.539792e+01 2.007480e+01 3.287229e+01 2.981948e+01 1.936766e+01 2.515605e+01 2.873040e+01 3.656636e+01 8.544692e-03 7.850952e-01 5.985704e-01 1.049919e+00 1.521487e+00 1.596934e+00 1.775718e+00 3.450897e+00 2.789758e+00 2.319876e+00 2.101183e+00 2.563596e+00 2.837236e+00 1.813996e-04 1.109975e-01 1.188797e-01 2.004803e-01 1.078633e-01 2.288583e-01 2.080685e-01 3.391243e-01 3.931062e-01 2.554260e-01 3.253435e-01 3.109933e-01 3.452349e-01 4.293582e-05
<GCONST> 7.460815e+01
<MIXTURE> 4 6.294093e-02
<MEAN> 39
 -2.849157e+00 1.411236e+01 -2.416668e-01 -8.033387e+00 -3.432350e+00 -7.609421e+00 -9.521311e+00 1.916896e+00 4.459858e+00 -2.438945e-03 4.808568e+00 -2.691573e+00 8.880736e-01 -2.377615e-01 -2.306097e+00 2.844452e-01 -2.755477e+00 8.893926e-01 6.035436e-01 1.626468e+00 8.698524e-01 -1.182700e-01 9.209250e-01 -1.132670e+00 8.907587e-01 4.855639e-03 2.092193e-01 -7.364126e-01 1.209490e-01 9.533133e-02 -3.430974e-01 9.272294e-01 3.739410e-01 1.172887e-01 -5.942026e-01 -1.786980e-01 -6.066802e-01 -4.996503e-02 -3.818623e-03
<VARIANCE> 39
 7.195341e+00 1.851943e+01 1.358896e+01 1.834131e+01 1.461592e+01 2.040433e+01 2.084918e+01 3.490250e+01 2.900326e+01 2.713092e+01 2.337389e+01 1.217068e+01 4.409350e-03 3.625105e-01 7.241476e-01 1.435418e+00 5.603279e-01 1.211988e+00 2.267038e+00 1.582362e+00 1.467833e+00 2.181627e+00 1.139046e+00 1.635651e+00 5.560306e-01 2.254100e-04 6.520882e-02 6.841261e-02 1.015211e-01 2.398064e-01 1.778428e-01 2.767632e-01 2.735962e-01 5.299736e-01 2.141321e-01 2.959929e-01 3.124196e-01 2.055141e-01 1.504492e-05
<GCONST> 6.330736e+01
<MIXTURE> 5 1.876842e-01
<MEAN> 39
 5.014819e+00 8.587413e+00 -9.516259e-01 1.729122e+00 -9.318032e-01 -4.616783e+00 -3.516804e+00 8.655730e-02 -3.022195e-01 1.137793e+00 2.947249e-02 9.859455e-01 8.055060e-01 4.051724e-01 -4.987492e-01 7.259591e-01 4.907465e-01 3.967009e-01 7.216719e-03 1.952474e-01 -5.479219e-01 -2.292817e-01 1.234453e-01 5.730292e-02 -1.812516e-01 -1.980039e-02 -2.597698e-01 -4.842458e-02 2.114466e-01 6.521043e-02 7.697837e-02 1.565794e-01 4.697594e-02 -2.414565e-01 -1.113994e-01 -2.502364e-01 -1.918881e-01 -2.557032e-01 -5.429928e-03
<VARIANCE> 39
 1.083682e+01 4.470392e+01 1.942899e+01 2.199850e+01 2.039048e+01 3.102543e+01 2.309892e+01 2.107414e+01 2.718083e+01 2.756229e+01 3.524885e+01 1.615645e+01 7.034406e-03 6.728650e-01 7.309455e-01 1.472310e+00 1.346063e+00 1.294199e+00 8.977478e-01 1.989714e+00 1.483083e+00 1.738516e+00 1.496670e+00 1.851987e+00 1.770183e+00 7.368891e-05 6.621721e-02 1.464245e-01 2.437288e-01 2.111316e-01 1.839282e-01 4.481392e-01 2.742349e-01 3.321758e-01 3.257157e-01 3.386023e-01 3.304164e-01 3.088593e-01 2.179871e-05
<GCONST> 7.068161e+01
<MIXTURE> 6 7.492866e-02
<MEAN> 39
 -2.734245e+00 1.338493e+01 2.826176e+00 -9.827486e+00 -6.341103e-02 -7.408355e+00 -7.909490e+00 5.376832e-01 3.468220e-01 -1.296488e+00 2.590473e+00 -2.657178e-02 8.981366e-01 5.470396e-01 -2.202516e+00 1.565211e+00 -1.936629e+00 9.203884e-02 9.401435e-01 3.361950e-01 1.729669e+00 1.338289e-01 1.280105e+00 -1.362189e+00 7.046455e-01 -9.552768e-03 2.763940e-01 -3.974768e-01 4.136511e-02 7.949033e-01 -4.094883e-01 7.851799e-01 2.207434e-01 2.105671e-02 1.038532e-01 -2.680013e-01 -1.024105e-01 -2.675366e-01 -9.474901e-03
<VARIANCE> 39
 8.982506e+00 2.840846e+01 1.775598e+01 1.318877e+01 8.239955e+00 1.012782e+01 1.638450e+01 2.106157e+01 1.075957e+01 1.640884e+01 1.914092e+01 1.021938e+01 4.521559e-03 3.696120e-01 5.483872e-01 1.195713e+00 1.350755e+00 6.391757e-01 1.073676e+00 2.136354e+00 1.275086e+00 1.969742e+00 1.085600e+00 2.257061e+00 1.111761e+00 1.494439e-04 8.100127e-02 1.528387e-01 1.454643e-01 1.975273e-01 2.149078e-01 1.847696e-01 2.575844e-01 2.585247e-01 1.943181e-01 1.838775e-01 3.319971e-01 1.970001e-01 5.139261e-05
<GCONST> 6.056290e+01
<MIXTURE> 7 6.187562e-02
<MEAN> 39
 -4.844174e+00 1.020070e+01 -3.543138e+00 -6.282236e+00 4.762175e-01 -1.069195e+01 1.730611e+00 -4.102155e+00 -2.946783e-01 3.477108e-01 3.735242e-01 3.986778e+00 8.786029e-01 9.861837e-02 -1.937436e+00 1.937685e+00 -2.842072e+00 9.869654e-01 -4.448513e-01 -8.312375e-01 8.491217e-01 -7.782208e-01 -6.964763e-01 2.720676e-01 -1.251216e+00 -9.739022e-03 4.970326e-01 -4.016970e-01 5.679129e-01 4.085334e-01 -8.919197e-01 8.909227e-01 -6.518649e-01 1.522548e-01 4.541044e-02 -3.700116e-01 -5.029101e-02 -1.063988e-01 -3.502933e-03
<VARIANCE> 39
 2.222277e+01 3.031666e+01 1.340233e+01 1.738149e+01 2.337302e+01 4.746170e+01 2.297019e+01 2.698503e+01 2.813485e+01 4.570327e+01 5.935041e+01 9.406612e+01 8.562376e-03 3.536581e-01 1.115798e+00 1.046915e+00 1.721045e+00 2.205875e+00 1.968308e+00 2.469646e+00 1.680224e+00 1.310153e+00 2.503731e+00 9.227773e-01 2.164991e+00 4.557371e-05 7.311521e-02 3.135349e-01 1.510548e-01 2.991817e-01 3.140051e-01 4.267831e-01 3.957395e-01 5.257496e-01 3.604924e-01 4.251692e-01 2.704313e-01 3.239000e-01 1.066199e-05
<GCONST> 7.633055e+01
<MIXTURE> 8 7.374138e-02
<MEAN> 39
 -3.059417e+00 1.048453e+01 -6.314938e+00 -5.443143e+00 -5.935950e+00 -8.916859e+00 1.724914e-01 -3.057742e-01 5.880222e+00 1.009899e+01 9.440523e+00 1.274090e+01 8.922464e-01 6.794852e-01 -8.199928e-01 9.780443e-01 -5.751980e-01 1.087539e+00 -8.531755e-02 -1.526375e-01 2.141496e-01 -1.297753e+00 -1.287291e+00 -2.373339e+00 -2.543852e+00 -3.047152e-02 4.738975e-01 -7.022786e-02 4.889038e-01 5.575087e-01 3.036743e-01 6.736645e-01 -4.667843e-02 -2.553641e-02 -4.720969e-01 -7.806885e-01 -5.258896e-01 -8.338030e-01 -1.547031e-02
<VARIANCE> 39
 1.787762e+01 2.008206e+01 3.618290e+01 9.750453e+00 2.773211e+01 2.428640e+01 3.159463e+01 4.594218e+01 7.255889e+01 6.943905e+01 2.909686e+01 7.056795e+01 4.766170e-03 1.517881e+00 1.269917e+00 1.812916e+00 1.688946e+00 2.807174e+00 1.314631e+00 1.699752e+00 1.936843e+00 2.867007e+00 5.723341e+00 4.181795e+00 3.748522e+00 2.894209e-04 2.090738e-01 2.300643e-01 4.139739e-01 2.516788e-01 3.902553e-01 3.681111e-01 4.951744e-01 4.416027e-01 3.848757e-01 6.218895e-01 3.241203e-01 5.914614e-01 1.158774e-04
<GCONST> 8.879893e+01
<MIXTURE> 9 1.021199e-01
<MEAN> 39
 -2.059522e+00 1.124520e+01 -4.497807e+00 -8.909348e+00 -4.316071e+00 -1.300496e+01 -4.380449e+00 -3.161881e+00 -5.019324e+00 -3.512750e+00 -4.722762e+00 -4.375920e+00 8.784670e-01 5.977616e-01 -8.113881e-01 2.119267e+00 -8.426250e-01 1.822236e+00 6.293564e-01 1.993127e-01 1.214219e+00 1.627088e-01 2.174834e-01 1.241014e+00 -6.145424e-01 -2.185227e-02 3.626617e-01 4.825433e-02 6.306468e-01 9.992518e-01 2.639056e-01 1.067371e+00 1.023391e-01 3.748406e-01 2.695092e-01 3.686594e-01 2.915593e-01 5.024171e-01 -1.417173e-02
<VARIANCE> 39
 1.073169e+01 2.692387e+01 1.908383e+01 2.143688e+01 1.573384e+01 1.807170e+01 2.689309e+01 2.906050e+01 1.771316e+01 2.277178e+01 3.019029e+01 4.008940e+01 4.356587e-03 6.429250e-01 5.469476e-01 1.436647e+00 2.206868e+00 1.478163e+00 2.066437e+00 1.994786e+00 2.354795e+00 2.755094e+00 1.789644e+00 2.261679e+00 3.063874e+00 1.207024e-04 1.263207e-01 1.466472e-01 1.801676e-01 2.648233e-01 2.972258e-01 3.065937e-01 4.145894e-01 3.886150e-01 4.767720e-01 3.738611e-01 3.375657e-01 3.639117e-01 4.839944e-05
<GCONST> 7.560282e+01
<MIXTURE> 10 1.993330e-01
<MEAN> 39
 -1.276281e+00 1.426708e+01 2.075348e+00 -4.010242e+00 -3.862424e+00 -4.277239e+00 -9.912276e+00 -4.354592e-01 -8.438046e-02 -4.398137e+00 5.057751e+00 -4.480314e+00 8.248159e-01 8.458696e-01 -7.165433e-01 6.114013e-01 -2.077435e-01 9.507196e-01 6.861344e-01 1.273499e+00 1.501775e-01 4.095680e-01 3.562998e-01 -6.346197e-01 2.852804e-01 -2.691091e-02 1.852575e-01 -6.987185e-02 6.120043e-02 5.411243e-01 2.621297e-01 3.655121e-01 3.759773e-01 4.702719e-02 -1.571570e-01 7.705726e-02 -2.767483e-01 7.159451e-02 -1.047625e-02
<VARIANCE> 39
 7.819541e+00 2.376930e+01 1.564023e+01 2.592739e+01 1.618731e+01 1.601523e+01 2.186123e+01 1.796874e+01 3.489032e+01 2.638168e+01 1.632534e+01 1.559906e+01 6.953098e-03 5.714472e-01 8.478127e-01 1.489385e+00 1.142316e+00 1.428121e+00 1.379136e+00 1.949366e+00 1.772694e+00 1.889176e+00 2.280302e+00 1.457665e+00 2.492558e+00 1.879234e-04 6.739981e-02 1.056287e-01 1.634146e-01 2.236270e-01 1.982843e-01 1.876367e-01 2.458460e-01 2.580512e-01 3.575093e-01 2.538590e-01 2.563337e-01 2.098346e-01 4.871401e-05
<GCONST> 6.817545e+01
<STATE> 10
<MEAN> 39
 2.980174e-01 1.044814e+01 -1.876694e-01 -5.005210e+00 -1.855840e+00 -6.521068e+00 -3.534993e+00 -4.677327e-01 -1.264579e-01 -6.060870e-01 3.454018e-01 -6.992167e-01 8.258188e-01 7.775240e-01 -9.974121e-01 1.468837e+00 2.189225e-01 9.164114e-01 1.264471e+00 4.841827e-01 3.388354e-01 -7.351235e-03 2.535124e-03 -3.453307e-01 -3.526785e-01 -3.233664e-02 -7.745679e-02 -1.396625e-01 1.041292e-01 7.502321e-01 -3.435265e-02 5.421770e-01 7.347178e-02 -4.369307e-02 -7.391651e-02 -6.575850e-02 1.239713e-02 1.003292e-01 -1.192779e-02
<VARIANCE> 39
 2.120598e+01 3.650630e+01 2.511629e+01 4.418481e+01 2.427563e+01 3.023019e+01 3.840430e+01 3.180190e+01 3.382034e+01 3.650900e+01 3.443748e+01 4.175191e+01 8.201800e-03 9.750315e-01 1.797967e+00 2.145391e+00 2.318700e+00 2.199505e+00 2.262260e+00 3.391212e+00 3.078483e+00 2.683405e+00 3.064055e+00 3.661556e+00 3.562296e+00 4.561208e-04 1.935726e-01 2.493383e-01 2.648076e-01 4.733216e-01 5.019430e-01 4.123595e-01 4.350616e-01 4.519549e-01 4.182165e-01 4.312887e-01 3.852105e-01 3.952507e-01 1.225669e-04
<GCONST> 9.082014e+01
<STATE> 11
<MEAN> 39
 1.915341e+00 9.665887e+00 1.702157e+00 -3.989041e+00 -8.863416e-01 -4.111304e+00 -3.392065e+00 -1.322332e-01 -2.868541e-01 -8.255513e-01 -2.835327e-01 -1.374033e+00 7.750746e-01 5.023720e-01 -9.846219e-01 1.420044e+00 1.340129e+00 7.536298e-01 1.709404e+00 4.741827e-01 4.976925e-03 -2.000415e-01 -2.432876e-01 -2.680544e-01 -1.394954e-01 -4.442086e-02 -4.104896e-01 -1.787436e-01 -2.282690e-01 5.741043e-01 -5.335099e-02 1.735048e-01 9.842525e-02 -8.180183e-03 4.197554e-02 2.583342e-02 1.567396e-01 2.136238e-01 -1.236918e-02
<VARIANCE> 39
 2.118188e+01 3.880932e+01 2.822830e+01 5.294075e+01 2.621507e+01 2.707481e+01 3.604226e+01 3.687348e+01 3.478473e+01 3.447592e+01 3.332735e+01 3.818566e+01 1.144163e-02 1.175330e+00 2.322806e+00 2.143238e+00 2.466722e+00 3.308911e+00 3.178212e+00 3.418357e+00 2.856629e+00 2.550305e+00 3.263817e+00 3.580105e+00 3.296979e+00 9.444027e-04 2.852494e-01 2.571939e-01 4.267474e-01 6.129500e-01 4.210781e-01 4.804112e-01 4.958382e-01 6.049313e-01 5.206755e-01 5.150632e-01 5.003279e-01 5.172138e-01 2.142117e-04
<GCONST> 9.627527e+01
<STATE> 12
<MEAN> 39
 2.037621e+00 8.461408e+00 3.326936e+00 -1.745338e+00 -6.703234e-01 -1.899803e+00 -2.777908e+00 -6.406815e-01 -6.267541e-01 -1.513568e+00 -6.597496e-01 -1.126189e+00 7.289416e-01 -2.646187e-01 -1.345106e+00 9.667345e-01 1.929888e+00 7.429936e-01 1.775230e+00 7.500152e-01 1.039164e-01 -9.214724e-02 -1.787065e-02 1.148568e-01 1.872846e-01 -6.085846e-02 -5.781108e-01 -2.632042e-01 -5.743765e-01 1.600447e-01 -1.201910e-02 -1.305334e-01 1.768430e-01 2.192792e-01 2.516780e-01 2.580794e-01 2.607667e-01 2.169520e-01 -1.130429e-02
<VARIANCE> 39
 1.963759e+01 4.706993e+01 2.743923e+01 5.408603e+01 2.960655e+01 3.022212e+01 3.916349e+01 3.983572e+01 3.752030e+01 3.280822e+01 3.558410e+01 3.581958e+01 1.346279e-02 1.599161e+00 2.569522e+00 1.976997e+00 2.812274e+00 3.718161e+00 3.221546e+00 3.088243e+00 2.798663e+00 2.702776e+00 3.155605e+00 2.994946e+00 2.873831e+00 2.025188e-03 3.408238e-01 3.206050e-01 4.834248e-01 6.147771e-01 4.895936e-01 7.359747e-01 6.511035e-01 7.988939e-01 6.271042e-01 6.087217e-01 6.062246e-01 6.043490e-01 3.161173e-04
<GCONST> 1.006504e+02
<STATE> 13
<MEAN> 39
 1.058647e+00 7.002556e+00 4.148972e+00 9.192078e-01 2.460985e-01 -2.409556e-01 -1.851867e+00 -8.587492e-01 -1.125463e+00 -1.511089e+00 -1.004334e-01 -7.215487e-01 6.620016e-01 -1.053061e+00 -1.754102e+00 5.761855e-02 1.672903e+00 8.042056e-01 1.274592e+00 9.858949e-01 5.885423e-01 4.069782e-01 4.401980e-01 4.758739e-01 4.675217e-01 -7.432842e-02 -4.424088e-01 -1.817940e-01 -6.609356e-01 -3.214760e-01 -2.608980e-02 -3.286654e-01 1.280640e-01 3.129119e-01 3.615573e-01 3.427846e-01 1.672855e-01 1.032743e-01 -4.055538e-03
<VARIANCE> 39
 1.774427e+01 5.619053e+01 2.701683e+01 5.448085e+01 4.604555e+01 3.934247e+01 4.781434e+01 3.929958e+01 3.857267e+01 3.890022e+01 4.158553e+01 3.532059e+01 2.194886e-02 2.539162e+00 2.230512e+00 2.424234e+00 3.321286e+00 2.712689e+00 4.140408e+00 2.627843e+00 3.600780e+00 3.209827e+00 3.000460e+00 3.077007e+00 2.904715e+00 3.786616e-03 2.434579e-01 4.618863e-01 4.464447e-01 5.650975e-01 8.414545e-01 7.873738e-01 8.339880e-01 7.900572e-01 6.531811e-01 7.071900e-01 6.636155e-01 6.266007e-01 3.618167e-04
<GCONST> 1.051030e+02
<STATE> 14
<MEAN> 39
 -7.200646e-01 4.830006e+00 3.630864e+00 2.238181e+00 1.127030e+00 6.275539e-01 -6.148019e-01 4.426756e-01 -2.285210e-01 -5.789035e-01 8.094587e-01 -3.905532e-02 5.615738e-01 -1.382514e+00 -1.981195e+00 -6.602507e-01 8.989097e-01 7.641140e-01 8.363317e-01 1.061577e+00 1.090851e+00 9.170683e-01 9.094914e-01 5.510643e-01 4.512703e-01 -7.385677e-02 -1.014314e-01 5.921382e-02 -4.405932e-01 -5.133358e-01 -6.100430e-02 -2.734015e-01 5.643008e-03 1.468599e-01 2.451556e-01 2.290299e-01 -1.258272e-02 -5.935087e-02 8.655968e-03
<VARIANCE> 39
 2.164457e+01 5.585999e+01 2.738053e+01 5.345670e+01 4.730645e+01 4.467900e+01 4.588682e+01 3.481145e+01 3.800641e+01 3.796178e+01 4.020461e+01 3.520419e+01 4.630165e-02 2.926902e+00 2.471994e+00 3.009027e+00 3.453280e+00 3.052459e+00 5.228013e+00 3.666396e+00 4.642019e+00 3.922681e+00 3.529608e+00 3.434850e+00 3.602868e+00 5.149050e-03 1.581699e-01 4.705254e-01 3.885770e-01 5.915042e-01 7.797890e-01 6.387246e-01 7.435884e-01 5.748464e-01 5.808282e-01 6.071583e-01 6.088644e-01 5.199234e-01 4.649569e-04
<GCONST> 1.068703e+02
<TRANSP> 15
 0.000000e+00 1.000000e+00 0.000000e+00 0.000000e+00 0.000000e+00 0.000000e+00 0.000000e+00 0.000000e+00 0.000000e+00 0.000000e+00 0.000000e+00 0.000000e+00 0.000000e+00 0.000000e+00 0.000000e+00
 0.000000e+00 6.652890e-01 3.347110e-01 0.000000e+00 0.000000e+00 0.000000e+00 0.000000e+00 0.000000e+00 0.000000e+00 0.000000e+00 0.000000e+00 0.000000e+00 0.000000e+00 0.000000e+00 0.000000e+00
 0.000000e+00 0.000000e+00 6.611092e-01 3.388908e-01 0.000000e+00 0.000000e+00 0.000000e+00 0.000000e+00 0.000000e+00 0.000000e+00 0.000000e+00 0.000000e+00 0.000000e+00 0.000000e+00 0.000000e+00
 0.000000e+00 0.000000e+00 0.000000e+00 6.910133e-01 3.089866e-01 0.000000e+00 0.000000e+00 0.000000e+00 0.000000e+00 0.000000e+00 0.000000e+00 0.000000e+00 0.000000e+00 0.000000e+00 0.000000e+00
 0.000000e+00 0.000000e+00 0.000000e+00 0.000000e+00 7.603335e-01 2.396665e-01 0.000000e+00 0.000000e+00 0.000000e+00 0.000000e+00 0.000000e+00 0.000000e+00 0.000000e+00 0.000000e+00 0.000000e+00
 0.000000e+00 0.000000e+00 0.000000e+00 0.000000e+00 0.000000e+00 6.675861e-01 3.324139e-01 0.000000e+00 0.000000e+00 0.000000e+00 0.000000e+00 0.000000e+00 0.000000e+00 0.000000e+00 0.000000e+00
 0.000000e+00 0.000000e+00 0.000000e+00 0.000000e+00 0.000000e+00 0.000000e+00 3.524661e-01 6.475339e-01 0.000000e+00 0.000000e+00 0.000000e+00 0.000000e+00 0.000000e+00 0.000000e+00 0.000000e+00
 0.000000e+00 0.000000e+00 0.000000e+00 0.000000e+00 0.000000e+00 0.000000e+00 0.000000e+00 3.384572e-01 6.615428e-01 0.000000e+00 0.000000e+00 0.000000e+00 0.000000e+00 0.000000e+00 0.000000e+00
 0.000000e+00 0.000000e+00 0.000000e+00 0.000000e+00 0.000000e+00 0.000000e+00 0.000000e+00 0.000000e+00 2.408575e-01 7.591425e-01 0.000000e+00 0.000000e+00 0.000000e+00 0.000000e+00 0.000000e+00
 0.000000e+00 0.000000e+00 0.000000e+00 0.000000e+00 0.000000e+00 0.000000e+00 0.000000e+00 0.000000e+00 0.000000e+00 1.590083e-06 9.999984e-01 0.000000e+00 0.000000e+00 0.000000e+00 0.000000e+00
 0.000000e+00 0.000000e+00 0.000000e+00 0.000000e+00 0.000000e+00 0.000000e+00 0.000000e+00 0.000000e+00 0.000000e+00 0.000000e+00 1.238269e-01 8.761731e-01 0.000000e+00 0.000000e+00 0.000000e+00
